<?xml version="1.0"?>
<opencv_storage>
<opencv_ml_ann_mlp>
  <format>3</format>
  <layer_sizes>
    324 128 64 10</layer_sizes>
  <activation_function>SIGMOID_SYM</activation_function>
  <f_param1>0.66666666666666663</f_param1>
  <f_param2>1.7159</f_param2>
  <min_val>-0.94999999999999996</min_val>
  <max_val>0.94999999999999996</max_val>
  <min_val1>-0.97999999999999998</min_val1>
  <max_val1>0.97999999999999998</max_val1>
  <training_params>
    <train_method>BACKPROP</train_method>
    <dw_scale>0.10000000000000001</dw_scale>
    <moment_scale>0.</moment_scale>
    <term_criteria>
      <epsilon>0.01</epsilon>
      <iterations>1000</iterations></term_criteria></training_params>
  <input_scale>
    23.319205469812363 -0.61494020083185486 24.829963870830849
    -0.59959321375390628 17.791923975602664 -0.56948036708913463
    24.13674641524419 -0.41412962343401971 14.733896613811515
    -0.41968900529725361 49.03662704060708 -0.24939748755979313
    48.009864556278131 -0.26203574229824206 57.382019476770999
    -0.29356049063195805 27.953502243920994 -0.52588701126266746
    10.585039491802148 -1.0907709508981849 8.8374694937531064
    -0.92508987837654388 8.328683732015346 -0.79749192266975844
    13.943427821677934 -0.46451383467265644 10.258590273707611
    -0.47666936666272552 21.547564169676779 -0.33664548651243376
    20.554937863000916 -0.4107483831710867 22.368334225137151
    -0.47814332356045691 13.249427364696265 -0.93904252175901037
    7.2519030092807997 -0.9369130850759475 7.3128521543583407
    -1.1986076529614378 7.1178730321411239 -1.558081922194305
    8.6033307558814176 -1.0310381763999568 7.5541366121316385
    -1.1273704507469853 13.675956126095876 -0.47470381300552461
    14.769257302947386 -0.45326484722367316 15.929167495739645
    -0.43026812104439388 8.4749321788692189 -0.73113655826110546
    6.4116174556012497 -1.9299788095126476 5.831140441665708
    -1.9203150404408711 6.0539891789253453 -1.9656334504543329
    6.4593256472800311 -1.1590685786007293 6.680081781913251
    -1.1708299404210323 9.905322590701811 -0.67262930056655013
    9.649337289289786 -0.72904163490181106 9.1868425469721835
    -0.75119071433760154 6.61831039884816 -1.4984680753229223
    11.121020688866793 -1.0991281256838372 11.074642185494383
    -0.87376838128153445 11.901734226779588 -0.72730491885855253
    18.010133925276669 -0.39836365106989158 10.645418646219602
    -0.46363991740860855 18.074815873356634 -0.37189613454579051
    16.405831592186811 -0.50488515515164101 18.322039166360135
    -0.60000514793799753 12.583652044885595 -1.003675503680922
    10.037712879280212 -1.1249159215950537 10.048737566005046
    -0.81530648070343625 9.7650126213737458 -0.6502113642204983
    16.689646623679927 -0.43978905878451702 12.097969449103379
    -0.6299113438822086 21.754294975346795 -0.52834736134624216
    14.967522654303108 -0.67403700451483484 15.267277231195257
    -0.7609610591350896 11.136662086031093 -1.1214390845547531
    8.0525049687746879 -1.903669004289537 8.1403942351135736
    -1.8796213266451594 8.386268340160612 -1.7905438582395146
    8.4246992656074191 -0.91790393583282959 7.1563354410591158
    -1.0453056124042703 9.6565779428861021 -0.74918436346386053
    8.6759595898242985 -0.84426084050693739 8.6903153889574867
    -0.86093891556220026 7.8595294259029007 -1.5071552459035498
    7.6780513271386113 -1.8599883170586466 6.7996434161872132
    -1.492720964437509 6.7389861577961456 -1.3117384658346243
    8.1333823047493485 -0.91401800085505958 7.6536148036627587
    -1.3330518933020084 9.0020039667719765 -0.95969985120207879
    8.3130982296680394 -1.1151318310809102 8.5731431715640074
    -1.1268602679854802 7.9034763353478361 -1.7138325748389744
    11.394488448995913 -1.1049141028022338 13.807484471688884
    -0.71644523266654014 13.270996258396069 -0.57169385185850119
    19.78072512577203 -0.42388971414845761 9.5777154387123797
    -0.62765009823103857 13.511394255909561 -0.58593747059194612
    9.6343363844089538 -0.79203505708697564 11.224422023838988
    -0.85821815310332261 10.641762062197826 -1.1287447689629337
    16.831629389541519 -0.88790230918449919 19.221721256824694
    -0.47707005550299386 18.014964299422097 -0.38416112209951447
    27.980867345874444 -0.32886190628773376 11.010862050540538
    -0.62433903627693588 15.658835930609271 -0.56046840958798438
    10.810599992988164 -0.75481533041107962 15.144345645760948
    -0.79145164908996013 15.738950579180953 -0.97726268748940015
    7.6295227786960993 -1.6711056280292322 7.0922845096502591
    -1.2611304800770444 7.6097591581030368 -1.1905532094055225
    8.3862980162583067 -0.91670749190948808 6.7216246254331908
    -1.3973836581027823 7.1796472846093247 -1.0765114060716861
    6.9792458215917081 -1.273218998804762 7.4530246178662063
    -1.1574146320169658 7.6218557898496799 -1.5531626667695353
    6.5130035639732142 -1.1543665778934833 6.6756457371983666
    -0.81166446676414017 7.2223683941828742 -0.85285323438916893
    9.4095736982140945 -0.78841057125422032 8.3683404976577993
    -1.8261662030781409 8.4187246885584948 -1.1051083570586546
    7.6691253542127855 -1.3665739781684181 8.0811590449209803
    -1.1810136360721013 6.9128933515997755 -1.2951138253731604
    11.991373042988997 -0.73984111943252195 10.744698343251374
    -0.96485461879813172 9.2401205146381962 -1.4233776790865771
    10.684414332296162 -1.1355117434665354 8.7199785142838522
    -1.4555455547007692 14.867330101846253 -0.63622423656691696
    15.693451807531389 -0.59226167598509949 22.113400828041225
    -0.48098513578394353 14.484361244536624 -0.60465154193715109
    8.6985142011449188 -1.2954345182603892 8.3551232614659394
    -1.628184367136807 8.7779023452809639 -1.9516512957481724
    8.3398004346242232 -1.2499275219625348 7.7792916123302982
    -1.3377733182419691 11.891284060019569 -0.74775717779444928
    12.626840706639006 -0.74669035754138857 14.336649776460831
    -0.68034777561889959 9.974953878714814 -1.0137001761313891
    9.4310909054191541 -0.79582352131407508 8.4071621649122505
    -0.80311230831899516 8.2156060434351357 -1.1668791932798763
    9.5768684038105274 -1.0886155746581572 9.9119817158321109
    -2.2320622010834739 11.34090252970012 -0.9599827449817091
    10.214925594202498 -1.0349238398909157 13.506183007409511
    -0.83536047626138155 11.214510813810435 -0.82330050584055581
    8.5903418397568849 -1.5184105697100831 8.1160992050811185
    -1.5790988965748911 8.1813756905487853 -1.7628571058079288
    8.0832174548512832 -1.2476139598763596 8.1008602775404714
    -1.6579344762912755 9.9088504826252297 -1.0263016512649137
    9.5314413394819724 -1.1008449366890756 10.448238411904258
    -0.97977426663573353 9.1551011388525314 -1.3349146951210564
    9.9606336566019049 -1.4236451164138046 9.4617504691576784
    -1.6154036954106801 9.514962971378095 -1.7416346254905204
    10.574996052278708 -1.1144289800471088 9.0193254449200353
    -1.2733335828575052 13.987727161778578 -0.80419341401776379
    12.690820234852669 -0.76827776498812284 15.004076474657001
    -0.72433046431726722 11.373898486554229 -1.124031179761978
    9.7937035019738303 -1.4717590534214158 8.9516173141345146
    -1.4842245054387921 9.0490982582151904 -1.5491624593951694
    10.243057082024457 -1.0942941020437356 9.0501653371423245
    -1.4277203299909196 11.284932448869602 -0.91534643024568174
    10.780762551969604 -0.93289523250193251 13.052783790463042
    -0.85726857636962206 10.79943621530011 -1.2249444040257871
    9.5066558278163953 -1.6285334748562268 9.3600796056255859
    -1.7977839830568616 9.2925403162617464 -1.7904812196624829
    10.429727319012454 -1.1844184514843772 9.3786123348352834
    -1.4443197413502986 12.059991126228581 -0.88386444810227394
    10.584389457207701 -0.92966457269578362 12.311228239281869
    -0.88850142267904053 10.137864647329875 -1.3122835546972089
    9.997351552646748 -1.921089627422681 9.4215415566548231
    -1.9292543363467778 9.3485942501342052 -1.9061122282495688
    10.007356749146648 -1.1484066657576639 9.1666139213202023
    -1.3905084528949276 11.358673661777049 -0.86071875346871307
    9.803204469570046 -0.88850270192819236 10.732101324630325
    -0.89166181998120686 10.230034888538936 -1.5160151602343961
    9.4055970399229558 -1.3171722667102643 8.1488098391415811
    -1.2026046731240607 8.3192695055355479 -1.3699131161007876
    9.5161518649442751 -1.0689133333858654 8.21630643826248
    -1.4526591413777268 11.589116469428383 -0.96803424100435365
    10.813804563500488 -0.96129026190397981 13.358411023406779
    -0.83807040723985149 10.897460868836687 -1.162603505366159
    8.4722526275905334 -0.93754637739856217 7.8477408235723658
    -0.86911967856880679 8.0839305054770687 -1.1980111387771222
    9.054691257702201 -1.0059723923256068 8.6966781939309801
    -1.7287155572067923 10.705229776066551 -0.89211752234606134
    10.433343239817043 -0.98757118801722776 15.044666267428688
    -0.85283402991344881 10.602368417620115 -0.94574486638868338
    8.7970487043166905 -1.5888608227160068 8.9840632673830427
    -1.8352004172461034 9.1297391052811587 -1.9845194346834505
    8.8041165434003474 -1.1402485926446124 8.2357438165111176
    -1.2067676246439776 12.785284659324905 -0.73297560311183241
    11.112524824655742 -0.76796199254085051 11.088994711331525
    -0.76105642622016445 9.0217469339822465 -1.2208555249191744
    7.9588444010855373 -0.99687958305804447 8.6783650046228065
    -1.3175645117090529 9.3278565665538782 -1.8398226268260716
    8.2993458814168122 -1.1140285577644859 8.4030168117562027
    -1.430769572524109 14.365117342461208 -0.63993423757726586
    13.275757811692085 -0.65168864194577636 12.313863787846488
    -0.54374854836304765 8.5338440183291411 -0.78894345223513251
    7.6069369906864752 -1.0188879093227254 8.1253948340193425
    -0.73889464178675568 8.5235448699909924 -0.8581124957951598
    10.398952690385519 -0.82654144744411728 9.9706225242160809
    -2.1840053924533813 10.754483737331675 -1.0851321529884861
    8.1910232898888022 -1.3522838560715611 8.5997563897138143
    -1.1584671225841752 7.6331777290669178 -1.1560689032782294
    7.7621602479519041 -1.8722250808877627 7.5933948854880686
    -1.5405122693051165 7.8610670525706112 -1.4368375604551797
    8.4214381718021176 -0.98790173683586824 7.8077310326320974
    -1.4921920091174785 8.7471070939333817 -1.0851226625424657
    7.5803734572064263 -1.3370511163320367 7.3085341883192561
    -1.2573965042585518 7.4566714116586397 -1.7064332174208807
    15.757470751370864 -0.95039576896061062 15.395054812087382
    -0.49943314981708242 13.54518998700372 -0.44932412969518409
    17.306885587020041 -0.39949972711778486 10.138551291149167
    -0.7606278365197281 20.884616876347188 -0.61705524682935464
    13.319281218576291 -0.83634496438715289 16.278527956796903
    -0.89263206357392122 16.181853444015474 -1.1407906225190765
    9.5032433500961293 -1.4675386743870524 9.2531565231795643
    -0.88963781629471139 9.6857338262770654 -0.71372765920461811
    12.109320484585764 -0.47495046479910241 8.8280036481771518
    -0.70563509479180608 13.268495294445875 -0.60738688810027996
    9.5523855587094104 -0.86618513741171577 9.6380320088127682
    -0.94448813921043662 9.5288679308667739 -1.4630328715029794
    7.387780146851318 -1.7445111600006513 6.9816238122152026
    -1.5161973740554147 7.2371819915634719 -1.3275021897981767
    9.8339933678493505 -0.8348528495778933 9.064504532384964
    -1.0927783989153788 12.431711443924236 -0.8442170273881261
    9.1270906408231784 -1.0230574118813163 9.4099080493997587
    -1.0895839477603506 7.787697836368201 -1.6037012437059985
    8.7878525834225645 -2.2689927179891969 8.452676206289599
    -2.0644069743010611 8.2752094508680241 -1.6884385525573447
    10.720230121387825 -0.84542608402704544 9.2711929089904714
    -0.95852908171506335 10.559292629229905 -0.69870169564929197
    7.8257708548511378 -0.85040405469295066 7.6155121971816797
    -0.94779748096847183 8.0124917562219213 -1.7272562228091435
    9.6973144500494257 -1.3039372353734429 8.6975697722383263
    -0.93940822412272917 9.1174730821913936 -0.72006327808117387
    14.087891297541255 -0.4201381391915307 11.808051990712432
    -0.54142767435728723 22.611707495837553 -0.49997934063181937
    13.782379801134681 -0.69345898196503764 13.138675053212484
    -0.78704446517273396 10.857500469763368 -1.2281463090999509
    9.5982574895844142 -1.2906920862259161 9.8848317184534888
    -1.0252766901886101 10.470368317962372 -0.82403076819927545
    16.879348153760148 -0.42883211676649402 12.426681691662582
    -0.46760904228448719 18.144463186142374 -0.40874668152819871
    11.604030651143457 -0.59184659519703886 11.062257768322736
    -0.70340121115243259 9.642078761046319 -1.1355577329648396
    7.2393130385274977 -2.1359651199783576 6.7039239603477965
    -2.0361197076240098 6.3969199046140748 -1.7759822171716078
    7.52572749538112 -0.94637792449052349 7.9940621330938395
    -0.8976422538639417 12.913697049707785 -0.55512557711037336
    9.6212566817589771 -0.72780702327783708 8.3422621934264107
    -0.83972339676429597 7.209595863928544 -1.6772396268836887
    6.3874123560500946 -1.198321197692273 7.0739575601092817
    -1.5586532452940984 7.5375212236577767 -1.6975482595773475
    8.5294912331927932 -1.0088644820942763 8.6245758696047528
    -1.1041229790075866 17.200732594228334 -0.41885989808196761
    13.424350314614808 -0.44944997932731562 10.960997609955502
    -0.48600675695266032 6.9174908718527064 -0.91653733475324817
    9.740476920594821 -1.2342266981372632 8.2737103735032242
    -0.97232381793681133 7.9178121264342032 -0.84013145710247283
    12.210389362868536 -0.49663014775480785 10.487853891742944
    -0.45386487120594254 18.405770478916413 -0.30305212537631177
    15.801443927334862 -0.43778983074379557 15.715823813016714
    -0.57082111443428107 11.148405711544212 -1.0641661390851789
    14.995251567157858 -0.71465881662008668 15.737875853501002
    -0.72713297315300074 11.34947911460362 -0.69087750462207975
    18.668911440887346 -0.48144221490385131 13.420252280674879
    -0.44499574961883265 30.380277092740823 -0.23000832993305681
    23.983980874012982 -0.24895430676533128 25.066465150298203
    -0.29285351118891867 15.911730180356711 -0.56515100818666608</input_scale>
  <output_scale>
    0.52631578947368418 0.49999999999999994 0.52631578947368418
    0.49999999999999994 0.52631578947368418 0.49999999999999994
    0.52631578947368418 0.49999999999999994 0.52631578947368418
    0.49999999999999994 0.52631578947368418 0.49999999999999994
    0.52631578947368418 0.49999999999999994 0.52631578947368418
    0.49999999999999994 0.52631578947368418 0.49999999999999994
    0.52631578947368418 0.49999999999999994</output_scale>
  <inv_output_scale>
    1.8999999999999999 -0.94999999999999996 1.8999999999999999
    -0.94999999999999996 1.8999999999999999 -0.94999999999999996
    1.8999999999999999 -0.94999999999999996 1.8999999999999999
    -0.94999999999999996 1.8999999999999999 -0.94999999999999996
    1.8999999999999999 -0.94999999999999996 1.8999999999999999
    -0.94999999999999996 1.8999999999999999 -0.94999999999999996
    1.8999999999999999 -0.94999999999999996</inv_output_scale>
  <weights>
    <_>
      -1.5997425927571471 -1.6434415547289363 0.68193204173279887
      0.21763999156213301 0.38004579518664533 1.4900743858873591
      -1.5297651392675855 0.14171074999906091 -1.6439372646037629
      -0.85471092092668888 1.8543592322312015 -0.55840393930456289
      0.22167365233279554 -1.9196622065967046 -1.2405041412808033
      1.3289914460700614 -0.0054753457996582853 4.184020783027691
      -1.1015556444906556 -1.0474368182775378 0.29138436890648151
      0.61003690341486339 -0.51302398438224162 1.5296075825926125
      -0.9709432042338878 -0.58617991703224126 -0.8836214412050406
      -0.22274631989916421 -0.5719233894584238 0.29542247678580685
      1.6365463458645801 -0.41691033247468767 -1.6519111822791126
      -1.0363055575094304 -1.2562815028083887 2.2510143469305621
      1.0130737454707548 0.10822584687687145 -0.87252069059004822
      0.26674566906846719 -0.39561208497415951 -0.11301200184528229
      -0.69450599178997685 -1.0862276197016452 1.3327826155277491
      1.726187558813024 -0.45644499129062899 -0.56918256242782328
      -0.79088170954593995 -0.87420818487718788 -1.6301666121096836
      -0.14353457150355683 1.3016139050294186 -0.97531680407919952
      0.23228529556749594 -0.32883345406154385 -2.2225958663289553
      -1.8336422156223193 0.052805670956664455 -1.8173546993299809
      -0.74043152505731014 0.10547147992114822 0.3176461828034905
      -0.67424584243857466 0.49107950116370186 1.8074822036235298
      -1.0513810086032382 1.0045685695113289 1.472755959035404
      -0.90646342302295668 0.56184934476993698 -0.3758769798776464
      -0.028800727295094992 -0.94097578037987861 0.24156734108947384
      0.67366769297815943 -0.076022679895135753 1.2110921480288288
      -2.4751614924123637 -0.14417183589786217 0.13227638189614885
      -1.0920769241948125 2.1042884397467261 0.6666528734807603
      -0.83112506614808312 2.4547677710366096 -0.10087160155978411
      1.3177618220897283 1.3721220641005614 1.3978184470581745
      -0.90717371405238323 -1.1150539021150963 -0.14706516474688805
      2.0082312754490768 1.3949335988906788 -1.4278956246693462
      -0.14662876297927313 0.78399728435820337 1.4188406727292848
      -1.3615154046777354 -0.56242298229519272 -1.2509738070505902
      -0.14746515007938155 -1.6227601366817448 -0.96076675081011687
      0.79496248066037378 3.020872632838802 -1.4175229259142665
      -0.28782759031726818 0.50452919366531912 0.31090911541234734
      1.2036165395208613 0.052690920311524093 1.0679782192774183
      -0.10387784249078025 1.0952120715297482 -0.28931704710639927
      0.77952435273448029 0.8505795210958782 -1.8457554911680072
      0.02653635811933221 -0.81434440652479034 1.0376645335570607
      1.0371783224478388 0.99285546417088155 -0.43323821347947084
      0.63530860188545901 -1.1965295073217026 -0.43080919458085409
      -0.84640058716513122 1.1217530964211833 -2.3461814667024217
      -0.069603997793783789 1.0688366035256565 -0.6549075075626829
      1.4030093872657527 0.083386359981349328 -1.2264522388954213
      1.1937691604750906 1.1243260703568883 0.47145397455831956
      1.0866427527938785 -0.16124294964860456 1.1464678281628378
      1.4210604822341277 2.4904301409866512 -1.4745723561280584
      -0.38460400049218596 0.3232657396130354 -1.3771647299240422
      -1.6578983392368369 3.7517841097752775 -0.9736698353349349
      -1.8556721131786069 -0.50139562557344153 -1.2472931501998781
      -0.82535452599580761 0.41642726945478631 2.8425680244328109
      1.6096558452750893 -0.3338414918247043 -1.7966137881630748
      -0.036357640109452284 1.7344070452902889 -1.2370485899678767
      0.28361365679439454 0.74554054334930753 -0.40325476870437238
      -1.4096247171252774 -0.49936084675791631 2.2781779323861953
      1.5130293452315939 -1.4307821148330233 2.5458718392725252
      1.0027786485773467 -0.03494047194293342 -0.25106297358255386
      -1.2066979403938849 -0.38637953367674782 0.56645957056711493
      1.9785746857138438 -0.75854620920105498 0.97501057054311968
      -0.37188889173060447 -2.2376472128371145 -0.036291298880321808
      0.34285218284318819 -0.89690840502409697 -1.3498085355911402
      0.20260755917978629 1.2917681610408056 -0.89283049500109835
      -1.6068615996368816 1.9601199343402489 -0.85816027639192238
      0.17119666551798707 2.6194194941808711 0.94738684268551121
      2.5291828981850619 -1.2025913412322737 -1.5438340173887475
      -0.42622790800481575 -0.63087428363883324 -1.017434129024827
      1.2003140164936243 1.6460220219129462 -2.0621103197461546
      1.6349361818811128 0.15609508134639788 -0.99457512129901793
      0.44381653680308525 0.33803123594080181 -0.76622601968839654
      -0.54904957653688391 -0.85062641996428667 0.12907724401400728
      1.4113253891598176 -0.35724339080498962 -1.3623415183738656
      -2.2198318275912352 0.23147119123732576 0.37632898913891538
      1.3089638186559112 1.3330921848749315 -3.132019539685007
      1.2350822711587457 -0.083420979647016613 0.72067492346593465
      1.0737969588383334 0.48160438880363787 0.60814536304772593
      -0.90215621815147728 -1.3203093013471294 0.83819112282623043
      0.82593848063365682 -0.81193504239185188 0.10483603335609729
      -0.42528320687010229 0.97641014781030366 0.086975445244900723
      -0.26477677090094487 0.68082885861128684 0.1805847533565296
      -0.0093150073391510633 0.57274702006886991 0.003626559992664701
      -1.1197911390374582 -0.69108870280437928 0.44317284832191339
      -0.0085565115679086551 1.7572828232152529 1.4011088630047264
      -1.6192301307142449 0.073526893879377317 -0.76132061248138594
      -0.67242275016080044 0.17633349457271047 -1.6084465060366828
      2.3417808552813657 -0.7820198201591877 -0.99456665185887339
      0.57859358508138625 0.21568552575119196 -0.33868995617412395
      3.0969935083174671 -1.2845867026133626 0.95160156373501781
      -1.5900387829249285 -0.71151622831196737 1.6824856304169851
      0.83205259173199142 -0.092074003726826614 1.1512309677993466
      -0.75095515827496273 -0.59503264869584815 -1.1262952393402166
      2.2711586828059684 -1.5045179585932911 -1.2590837341170371
      0.44214004628465386 -1.385956310749574 -1.7031536092791251
      -0.4456924552656446 0.14619289447947864 -0.080136748241024222
      -1.5638469607682521 1.6776674983774933 2.5877742967676558
      -0.046891595021274379 -2.1862526903805835 2.0650075107140302
      1.6104019005164991 -2.1361793134186766 0.40952959229487801
      2.9916750524185423 1.4721050204475339 -0.55769365500747203
      -1.7476267662016929 -0.29554697292842985 0.29177320658839473
      0.4773737358274493 4.8171774378456895 -0.22342182884310549
      -0.49748241977071689 -0.9119070429524665 -0.57783252572438182
      0.028593140943639673 2.5335511628930227 0.66008310971245143
      -0.83156837649142312 3.0553928808666506 -0.37477872859088951
      0.66268457483056142 0.23281667896818431 -0.71600704127324399
      -0.25839733790016428 -2.3733155603370837 0.28367746832773127
      1.3537531317076741 -0.31897365480223788 -0.69105467734869319
      0.22400131288906544 0.22084076158512797 -0.77014454606068783
      3.4885745870023914 2.2245919879570573 2.1562434273249096
      -2.4062416629144669 -1.1557261698486028 -0.37516137749006279
      -1.1171220759223162 -0.51302141769340037 -2.491895746869373
      0.48246735056057438 -1.6867613261145142 1.9617808463886859
      -0.50722690042637897 0.70062070969769041 1.7165620635232564
      -2.5659734454368941 -0.9474593396570602 -1.1455582575776246
      -2.8462623671432321 -1.9657238056668369 0.43262856963428425
      -0.95760229238204464 -0.36276837687126479 -0.30188841961909729
      0.82737878625604955 -0.17401420204779133 0.65600464047615181
      0.86427431696378643 0.69271185327367157 0.48192589322476415
      -0.92045579296684077 -0.31120989559137446 0.99347735226091149
      -0.35033884513271318 0.19571428489992659 -0.29967829579052258
      -2.8398103232179586 -0.21702960550197559 -1.7767184611203701
      0.88768679914531912 1.5939325180798067 -0.14356081363546114
      -0.70788846582187448 0.18091246748754777 -0.25585285963300264
      1.2284992044037684 -0.7813663491876579 0.16985699185183029
      1.7905840964024715 1.2811294467594352 -0.32273996813548556
      1.0928124436848778 -1.0914489908369489 0.76048487217464555
      1.8977007277482358 0.4572503702017871 -1.6360236516586237
      -0.10406513115336094 1.175054264478459 0.27316379706239968
      0.28354788774630219 -2.4495280944146525 2.2962464536965861
      -1.1705899630306491 -1.0915121398138126 0.8838174532027876
      -0.0260227847417848 -0.86502443954928043 1.0857685713976533
      -0.69989395932715415 -0.15194024837455541 -1.6351233449608515
      1.3735911838115866 0.11651931780418072 -0.1886870892822502
      1.4069406231232051 1.2806628114515712 -0.66435779919849891
      -0.88816792238935394 -2.2214022952956696 1.3455662169462743
      0.27561026888655371 -1.4067186005550645 -1.4473887243154953
      -1.4178884340607363 -0.68039740255738379 -0.80267344147826902
      1.2844487450777617 1.8709355393134806 -1.0332970090053797
      1.0200225172040525 1.0760198526701301 -0.78219210466816647
      0.050980803500592482 0.61174455010005058 1.7494657586224929
      -0.85772639774120318 0.45905695291047627 1.6093347675380349
      0.98822013967528011 0.017923804829676451 0.56960287607548876
      -2.1658670314242197 -2.0158923514795397 1.3428990198179287
      1.945113074429748 -3.2086437435050299 -1.0039673140856982
      0.2230568913180305 -0.069237138702391732 -0.37510741163198558
      1.486410655570684 0.87091015512996028 -1.2469019172114693
      0.8361959036937725 -0.51176990645588527 0.34625949291201197
      0.71617350569630189 -1.2328486446313944 -2.0537392034155491
      -0.52109762254043279 1.0213154730489791 1.5380294847902838
      0.40549630420155486 -0.25118308175169263 -0.0448287768773954
      -0.25498135091967189 -1.8100030814532813 2.9367836047878222
      0.40622333374962244 -0.39948968214843433 -1.3525507518517554
      -1.2508276844304462 -1.0211750651358587 -0.46142600100027703
      0.070483103980667913 -4.2950549553839883 0.026060229704901326
      -2.6109418331156613 1.1911809868149941 -1.2771073633336221
      0.37975630672611876 2.5050794454113792 -1.7309481856844227
      -0.70977541149484003 -0.75830698816200393 -2.5998491998972755
      -1.5272869279420673 -1.1583938993218883 -1.3727911620592383
      -1.3060042443225524 -0.83620969587733196 1.7944597895971504
      -1.1662045454677752 0.22891676153045518 -0.38527971963459989
      0.47516764220019891 0.48539906476980188 -1.3042204038931167
      -0.77159676848167469 -0.30754419620569751 0.64352336181249437
      0.24242377313847788 -0.12654326821914869 -3.1753044239447696
      -1.2942964167493514 -2.1748613777628889 0.66428677412280868
      1.1460533764008591 0.26018448641816122 -0.95818127272118492
      0.56299837791650653 -1.1423467652668782 -0.016351632553394172
      0.09771048212590798 1.1230184632851317 1.5689631710704863
      0.10338224004023883 -1.4131208211204744 1.5586595089006556
      -1.1207317172465445 1.1729658628308464 1.4514444517126417
      -1.0400206038906756 0.07462236046093132 1.1160279602206298
      0.35271879077912199 0.4862571277444625 0.14829941168513416
      -0.35822392283940302 1.1788556568853181 -1.2092975111367077
      -0.78679611244798997 1.2961834000609964 -0.46764539802095001
      -1.9737892395580134 -2.3773331615883175 -1.8881460746165544
      2.6568677489764561 -0.26271704593305212 0.92638413485276061
      0.40256566626881274 -0.801228713628786 1.4434379755305173
      -0.033082949654954417 0.75251175729297659 0.39182237262687414
      -1.4240848206095875 0.15620945687073154 1.4202399485283712
      -0.093718331377923902 1.4832324040749145 -0.63440625432149167
      -1.4927137479737709 0.71955500496864289 -0.21178114470136875
      0.71771172844436149 0.79340516360012492 2.3173155731574795
      -0.067067627816483899 -1.1833597197554453 0.14164657983920423
      -2.1035919471945972 1.8362574354772405 0.32268879566195835
      -1.1557070660349604 0.4031077408514348 0.69106894322418488
      1.800010477878095 0.06863739119937351 0.033317145928864873
      -0.33878314746930044 3.3153213840435689 1.798924987441781
      -1.2226181318818197 -0.96049256499783164 1.1487433143163761
      -0.86934264806573436 -1.438134458985266 0.43935531414361695
      0.11800676679177431 -1.9605767727420467 0.79935170729306371
      -1.5600422244006802 -0.79314691801910986 -0.011801711723065433
      -0.70008917856302055 -1.5365925129774218 0.22429648552296932
      0.025537928053017127 1.6255367937702858 0.21951147763067425
      -0.044950409663394836 -0.048860227466416349 -0.68143577772108044
      -1.3884320492148434 1.4898042630303374 -1.7352497782243055
      -0.069692764584878192 -0.052295108793819045 0.71597593604590115
      1.0128766826571423 -0.51379920424291337 0.81834925237495693
      -3.8212027974673326 0.33064903391132366 -0.64469400594423609
      1.0260079668836415 -0.79570936319140118 0.83128847159251373
      1.4794419319027485 -0.29638156854274023 -0.37482039380541382
      -1.4740984704440105 -1.273599013548802 0.38387377592775423
      -0.44965063882513184 -0.37902738731608093 -0.4329210008682885
      0.13165208263516842 1.6061745978497515 -0.36694165511450733
      1.5419133896821196 -1.4063445819032721 -0.88349398248531075
      1.5152802891572745 -0.069602964722086824 -0.45121135459265066
      0.97010747610223602 -0.14012255818529987 0.99326409064163368
      -0.50053834107513706 -2.0755163264528083 -1.093788989134584
      0.18137495846388332 0.0075707937938482434 1.2274734631066131
      0.38365122562969445 -0.00028137376608238825 1.6533930971348112
      0.086186674067853672 -0.06375685919985831 0.2164817784520873
      1.5821045638750568 -0.42023326561413277 -0.32426853912375198
      0.2699580215636484 -0.014952852879253055 0.017924150722677706
      1.9345028440762118 0.7698173393008535 0.51551354737747912
      0.72983618377910087 0.2439463538127373 0.38164132123638178
      1.1095874112549806 -0.72703937040614686 0.77139478649474169
      1.4281308036602587 -0.55383802535248416 -1.1567019007820238
      1.1425785707552256 -0.028622328842690177 -1.4113063060929318
      -1.4454396071630995 -1.1986053809810802 3.1257349370293559
      0.23821000660069855 0.82079089811688888 -0.26849297762995972
      -0.059818058286775194 -0.01282258166699897 -1.0259139071795711
      2.40594609820169 -0.94626808326056977 -0.40267406440154968
      -0.22950877602942452 0.56888938279879975 0.13374690730703565
      1.2569461621406119 -0.28955095358963667 -0.40664454599562377
      -0.0065227077286175343 -0.19633074364942343 0.53770697543290324
      -0.37977875508698589 0.50859395628211157 -1.8376653525779627
      -1.5387029371594012 1.3450207843887754 -1.6314889314391057
      0.76654892421289178 -1.2174246330133911 -0.058650166784628942
      -0.81117904267517671 0.28695297042913032 1.6616270324454692
      -0.70722214643123438 1.7736692283907003 0.24146402769184891
      3.3393673521052625 -0.33001455623100373 -0.84946319796021708
      -0.49893166942509298 1.4624655682693548 -0.68425056376090809
      -2.9378322453682331 -0.60494737085099726 -0.20113239192932644
      0.066218648939306082 -0.99608615836380221 -0.21030426052795528
      -0.76788842556314318 0.15806804339962452 -0.65893768911127171
      -1.3138876718768027 0.77825791806538569 -0.84865423657164862
      -0.59514678510856966 -0.53188905220473115 0.94754913817808251
      0.24965925905500383 -0.93382523641696868 -0.064748668201855417
      -0.98870842659779268 -1.4659001374312886 0.2898205897355991
      -0.78429304417579382 0.77715688069192135 -1.2929657849992957
      -0.061431184471116743 1.5782711431380145 -0.0039766240357281537
      0.44666719486096867 -0.16089618971124595 1.3697324527638963
      -2.1485618753448463 1.5259583363690061 -0.40300612771256039
      -0.18120544093923019 -1.1814405638820109 -0.39844490949202144
      -1.3081371540960798 1.5790528454561188 0.033709868004375983
      -0.645043747743546 0.29810997504638898 1.4783071940793708
      0.25949166049725308 -1.1831222831087977 1.6177477673744076
      0.037346640689334826 -0.84390625582472512 2.8889926118633964
      -2.7162772827726971 -0.44546685813391446 -0.20255375047783791
      -0.22479093649683629 -0.58425563030113747 -0.23436097626854938
      -1.9058573834310721 1.4072626579508505 2.8332460526552263
      -0.68820078950062591 -1.0580886320528953 1.4042025942099847
      0.96150450773789609 0.9624202143195969 0.11633230345649162
      0.13914648676506802 0.16042153646498217 1.5483260454483552
      0.3396500240034992 -0.82321935796047252 -1.8124065317884983
      0.24926816537414717 0.78179442243386776 1.0125563840121159
      -0.013513855343094235 0.55331126299782629 1.5924173843972658
      0.022853023498270196 0.3815494558391867 1.3571841691515056
      -0.60253100357372791 1.5563479448546564 0.31520665402778497
      1.2096520774630077 -1.400392736815157 1.4286349264411609
      0.28387653599158896 -1.1879888122347455 -2.5231247019928751
      -2.2878797348313125 2.8613017395530851 0.43462324091363985
      -1.2196319515019669 -3.5953019458854345 -1.4200370454458202
      -0.70641099937631968 0.49308440925521108 2.6940245958738864
      -1.7022883296898492 -2.182598134987598 0.22246116812111044
      0.45474814572150218 0.90451613596175506 1.5592833416888876
      1.1183727485698758 0.81257494568345301 -0.93406371082968653
      -1.9860585977744942 0.25371617697403187 0.63070534423994939
      0.72325446265713045 -1.5165618421516358 -2.4192980698342388
      -0.030475659563799495 -1.4507812145263996 1.4643319849084619
      1.0580218751944177 -0.65702878602348913 -1.6604241441649354
      -0.09205242296801823 0.37968576439389312 0.16020222327958308
      0.84402620454427169 -1.9377356556804806 -0.1822997977723276
      0.10311698200921417 0.41367735502334146 -1.6687069006087534
      1.3452339620151219 0.075230242775091369 -0.61244980860017495
      -0.056405425266804768 1.8803272035137346 -0.074571723038294208
      -0.76303756061455419 -0.1458263374137454 -0.24715428501890549
      -0.34130013570171153 -0.30698867269934754 -0.48440044713638752
      -0.4715956343388325 -2.6613061184090516 -0.962122452771625
      -0.73993304903239421 0.42787523831218582 -0.85617407793544342
      -0.3433274685212595 0.65604553618556904 0.045431481743556074
      -1.4206317205858179 3.0211052153423368 -0.94548725404386336
      0.42845973268445475 -3.6609495573950817 -0.42589889522982277
      1.5959432149324126 -0.84986064991225496 0.7029976438582084
      0.14262032925531609 1.6928214614023582 -0.54972226680207126
      0.24256807575716677 1.5301571195586616 -0.18189583642340443
      0.37628192857785181 -0.12447498327678769 0.072615251160839528
      -0.64606501007177808 0.32511554859740982 -1.3676650216656205
      -0.24308517582889511 1.0738499810382096 0.68227024897974731
      0.030360673476434962 2.9398273401123021 0.30821281819803514
      0.022194392450840452 2.533855763009476 -2.227007000927244
      -0.46885311755447978 0.59091731834812 -2.2846140988569941
      0.87751235166637931 -0.80393646843487232 -1.2465167091418654
      -2.0503650009698662 3.1638409518524515 -0.28906256141205683
      -1.6255252110434504 -1.413899834831682 1.8358260508316815
      0.86481643315610579 0.51535587353691947 1.3558138514056457
      0.14023337028814781 -0.31753617245578752 -0.56202524443272506
      1.9402935719022147 1.9897994116769253 -2.6367011953916553
      1.2692020966414943 -0.21412722086282579 -0.20885303362005617
      1.5506180602286537 1.6795947910612279 -0.84963330538000348
      0.02599375998140218 -2.0551453146268157 -1.0712434390822076
      -1.0984691963515083 0.45104450858296335 2.0183957402842809
      -1.2078587682038846 1.1607989387064939 -1.0867035318814389
      -0.57457664395533015 -3.6553059709826363 -1.407329474847848
      2.1349034637022783 1.926899985793614 -2.4894737282853128
      -2.5859444159233962 -0.90685480683392905 0.27967306577644069
      0.88246587073955562 1.1397813846897156 -0.093349700947678513
      -2.6511657953975316 0.69446291188876874 -0.044689194994650579
      1.4689924340684781 1.1916802779456186 0.44467800597348911
      -0.3023589883802747 -0.67889543384435536 0.01168279226500846
      -0.99792542477307289 -1.4544453155856298 3.5967432965567605
      0.067650918182057831 -0.13550388922772394 -1.6441940669484199
      -1.4325443630646093 3.5834935871915676 0.54191114459060541
      0.61306811889734969 -1.7521508580097651 0.044557726605009985
      -0.32833241838781951 0.94731654406849197 -0.63180470800720956
      -1.9729245172366023 -1.3400075209198388 0.41876954849167175
      -1.7806521927786816 -0.98938408494571983 -0.2138850568346472
      1.5208028706444996 -1.0454675923829648 -0.34856690937360796
      2.2445945559195102 -0.67529306987665794 0.36319314171961581
      -1.2831738068666949 -0.85808148436426634 -1.3100047785527902
      -0.58216303218465915 -1.8807338047196438 -0.73342280950287853
      -0.12366467262223059 -0.93417896746519613 -1.2729798427226968
      0.73707723072292142 -1.2431812957641548 0.033910275808593598
      -0.95381746146293322 -0.1195475334117396 -1.764753203615216
      2.6153275207012303 -0.047095177229744288 0.37518413806155515
      -3.2508717031966308 -0.62631368073306104 0.7125032718552422
      0.70149767851653599 0.37825651507678026 -1.5282280665445214
      -0.34776601856911171 -1.0167881760395088 0.18773575328041681
      3.3687130705323218 -0.73662078261302355 -1.1559873502426468
      0.25851533493374124 1.1509816477224937 -3.1413850053392607
      -0.43415849501239107 -0.74880800893966315 0.8422053381810698
      2.1327325931462018 -0.26056828412052035 0.38912012311824262
      2.4112181219374706 -0.72478261094624319 -0.23054499527703018
      1.3836886053478903 -0.83588907823547387 -0.392065775625699
      -0.55746308585028459 -2.001484107603432 2.7738514773545866
      -0.68667887306143649 -0.90138944603404114 -1.6428043064377704
      2.8813380413343932 -0.91024121610698594 -1.7945451564262387
      -1.7376151600704834 1.7967960730531702 1.8037354507810983
      0.52915057807375898 0.2856297606894761 0.16804574918550813
      0.4097354272261558 -2.4573207447589627 1.4679665017489245
      2.4290385285577325 -2.704837503519236 0.84095619832810664
      1.0438158782017379 0.31256725506840993 0.87247177628745498
      0.71509285197738859 -0.38820220642337333 1.8302332123318528
      -1.9905919086216686 -1.0575215682034149 -1.5439183051583518
      1.0919478585502034 0.99803418769447483 -0.96849632133048547
      1.5401344691360157 -2.2009895724243904 0.12544912704855629
      -1.6743706630850499 -1.0314510320017363 2.2757842474660483
      -1.1181661204689468 -1.0257505092657524 -1.9661531809411577
      -1.5390915239968681 1.0903650172631298 0.54226859490880597
      2.2275292665603259 -0.99040463384752386 -1.5794539514600114
      0.35565972278140789 0.10918073184181842 0.81085995216854612
      2.0101886330144483 -0.69801898612926994 -0.73465650140396643
      -0.71972855669208535 0.43320041242509993 -0.71792343332579678
      0.065077938334708457 0.81875163644828852 -0.15312338394907912
      -0.49222175878256536 -2.1820565987838885 -0.86283081640669157
      2.8052269961403078 1.6953980042494283 0.13694650190510863
      -0.98563868717809311 -0.25173894535517372 -0.41176898913815974
      0.36235693297850985 -0.48713108025273077 -2.1209421379159425
      1.9376229655787023 1.4753441288682381 -0.51401121874802991
      -0.52357589115643144 -0.52376107582779252 -0.18180981385711958
      -1.5901341267701352 -0.3389615859788313 1.2188572059978282
      -1.6704453602566003 0.89449096502921221 -0.86048397162533163
      -1.7742646964507578 -1.9939106149646568 0.29362760586938597
      -2.2334008166838171 -1.2096895049067482 0.1724946088204502
      0.013816846698992313 -1.6214417570864827 1.2735098093239194
      0.45871645005414474 -0.86452555711428192 0.83006083340798231
      1.0791716090930974 -1.4905252273140983 0.96754662532849689
      0.03649535741005084 0.34099380004754826 -1.3041079693886026
      1.3540182273297816 0.75845879122829585 -0.26512012365166865
      1.0979765520491473 -1.9596114650719456 -0.86019596967832634
      -0.55018828572858758 -1.1967465757288458 2.9346805350516827
      -0.503792802464749 -0.55566533784052152 2.3278049370705292
      1.1632853585830172 -1.735163072436968 0.063327545249318232
      0.67860990455871983 -0.6599739836902484 -0.41341244859466864
      0.34178854185797225 2.39629535522019 1.510977864949236
      -1.9348629607134791 -0.14371987418779791 1.1859960414624784
      0.62080132694874546 -1.0356653913690692 -0.42347706547002389
      -1.9406740400965847 0.89797800871722311 -1.0188830532849269
      -0.071212851103171007 0.12303834229634496 3.0013394342149202
      -1.6027220383287215 -0.36353394191302657 -0.95236343617834496
      -0.39897595107679434 1.4427316849217893 0.31634123729883856
      1.2226716360291041 -0.32333104281070207 -0.2660960584370628
      -1.6518455351599846 1.987218057239458 2.6376213129202921
      -1.8631416606434392 0.41377030262719738 0.86369803488121422
      0.57818201553096005 1.3778145998329254 1.3440035400054311
      -1.7338990927576021 1.4579762135520407 -0.83174378051995779
      -0.34398975707132778 0.053189235207339675 0.35086344340269587
      -1.9621936151160704 -0.0032904485976560367 1.6803484492492655
      -1.7601537412925965 0.56428035599859871 0.16367139169983011
      0.93872596934229957 -4.0343981018124868 0.055414880295692144
      -1.203216573993132 -3.5616256797258932 1.5335507419945613
      2.4383418702496553 0.24321522269577081 1.43048163860482
      1.1154308990632524 2.2481047800211229 -0.073261365396498149
      2.1170344010126758 -0.90918170427754563 1.5550626413420674
      0.64759587984856237 -1.7817893104865135 0.40201422011315546
      -0.47390044762975969 -0.7764525663771803 2.124738095490494
      1.6604122051535 -1.2448880827892508 -0.54810841898915974
      0.98327278457894451 0.23605531702324895 0.6991925712457272
      -2.3456547594356736 -1.1977766837493307 2.0599978298194315
      1.4627705287182424 1.2761773401724774 -1.3284638981591508
      -0.48991202348672863 1.1793418706437024 -0.72561050476850231
      2.1210245399044285 0.37581789392810244 0.52923147432113959
      -0.90120728774305092 -1.4436552594344121 0.068006352675350004
      1.5944594711330968 0.77242425576757101 -0.47498455108932075
      -2.1790715164030279 -0.050580082557715005 -0.37130303391018793
      -0.22431128079483223 0.064896275480710766 1.3777609913903459
      0.25110571826128275 1.0592119566919509 3.9325220945852699
      1.9333373742889868 -0.48429497691968643 2.5779577895094228
      -0.13009708088114663 0.34863690240264156 0.59067589816260546
      -1.1343009009962237 1.0269219310320901 -0.81828643433879222
      0.47777055685566838 -1.2570172511313387 -1.7270122593802431
      -0.75757877035811116 2.3044583828914758 0.89409069515000761
      0.23334076574266693 1.9390551234663564 2.1235386786045352
      0.551569645690416 0.7173578916766612 0.41813766292301924
      -0.22132008321526092 1.4108299661535284 -1.4162000792064822
      0.8783865836075696 0.93693325987282416 3.4474431576444116
      -2.6204914123075551 -0.36190490769155964 0.013709002000450039
      1.1541076332439835 -1.6282907801129369 -0.12085081551740826
      -0.83414909887963884 -1.0116297710456807 1.3392539379423711
      -0.052872518596732629 -0.35109354181846464 0.51053641057135646
      -0.32188692753074849 -1.522651869110307 3.0770705044762816
      1.7365248108820515 0.82338243159298952 0.4166311174434314
      -0.92594986987907046 0.20899932235424684 2.2269071667246241
      1.1613242995349673 -0.73791335091209109 0.45524988328046034
      -0.18275663357351632 0.24873741329527493 -1.6086076614001108
      -2.3447867693551294 -1.0840294002722999 0.81177386728177214
      1.9034438715797615 0.21184203006884131 0.694617729311791
      1.9594694699803843 -0.1233800328726347 1.9964547903089154
      -0.52142620399687023 -1.4580169931050504 0.27516996638212959
      -0.39224209283122941 -0.2461905133417859 -3.3599082111110614
      -0.15985531133219869 1.6855358948637051 0.049883919780909405
      -0.055104132854664617 1.2120781864946912 1.3042183478066487
      -2.1329051409575452 1.5078108776048438 1.4710489882510016
      -1.0551141565574271 1.1648807165683517 0.36612626482497124
      1.0761433107955742 -0.48184191407926769 1.9073410161466717
      1.6924879443143663 0.68468488844560105 2.5824042307067065
      -0.93939841263343848 1.8715301612353556 1.2489044190394305
      -1.9922038065981325 1.3704715327123889 -2.0480200018573744
      -1.5408407456062747 2.1370896456641431 2.643305720405444
      -0.29343526590427305 0.45439673115809676 -0.62814578760775297
      1.6820512282856008 1.3477353043708029 -4.9306720845392409
      -1.9507984576034381 1.7170330151646325 1.4379176335328736
      -0.69873386642570701 -0.67985582107341302 1.2133168240013317
      2.0185050991849098 0.60353338989958838 0.62763479003240097
      2.1083025624821259 0.83938426066393079 1.6480826725799607
      -1.3571922252282811 1.2581237497647482 -0.98866422189007996
      1.2714430486559261 0.64265707015148765 -1.270222267019546
      2.4990052012551822 -0.81386360211833109 2.3975483219534568
      -0.039887380478590202 1.3943279563775224 0.54651337907073239
      0.56949358946445827 2.0674264702723533 1.2571166387433035
      1.1218108579426589 1.4864611345540966 -0.69230162503952386
      -1.314760751051157 -0.42435139145425027 -1.0153597048187193
      0.71269506512947456 0.7572813848076595 -1.2913539245904888
      -0.19185792107092844 -1.9315540996337688 -2.4702058090273504
      1.9805461834510658 -0.40059159474954098 0.05012815203147649
      2.1447030580841902 1.8281825364353042 0.92717470653056999
      0.85640035866046538 0.56917276470235356 0.57768197238385932
      -0.18652510755587509 -1.8476591009648216 0.8193730056891585
      0.35714530108724407 3.8071074811805907 -2.0811058584125588
      -0.51283978199531843 0.97580321706093376 -1.4845937876642656
      0.19080200618078755 2.2654993853659562 -0.46430218740673773
      -0.84850955760327818 -0.21203339368537524 1.6283832646224636
      0.90291680172269229 -0.11539982310439391 0.055579234042424722
      -0.53037386495742633 1.5005273732770501 0.10039424283703173
      0.41483936728680537 0.56291278556457747 0.040915974425384631
      -1.47734719605641 1.674567205854804 0.14392295998420873
      2.0259418898474859 0.92046520999043391 1.2491686878420261
      1.6330881091064382 -2.0593204545482462 -2.1749892733485181
      -1.5667422803922273 2.4091060428243267 -0.35562418335126728
      1.360798047057487 0.34050779100433842 0.88376935874299445
      -1.4532309834126755 2.0635183693737322 -1.6084911992420459
      -1.0009440530963973 1.0585159149267869 -0.71251836499101728
      -0.34879822664872467 -2.9247410749277747 -1.2242281368536752
      0.35159998579528529 -0.36167575795854623 -0.88102006394421428
      4.097998546636755 0.60030234861953913 -1.2048080074077572
      1.8251373085932565 1.4255140783847766 -0.72786211419844027
      1.0919497306209482 1.2545180484878289 0.23039661976789089
      -2.393808099656928 1.6175940962103139 0.98912619390665024
      0.83808784578595574 2.5186490172173488 1.3685524580862285
      -0.91270689224610013 0.27008446457667884 -0.96101889430295262
      0.68295267919649272 -1.2869025232663653 -0.20640200659697278
      -1.3596974481224939 2.1064388628793442 -0.01759724428316068
      0.51215570205769401 -1.1818963601662247 0.93486171490387271
      2.2943095586873623 -4.3250841859702209 -2.4449194494339919
      2.6261201931449576 1.7857649070407648 1.0502323188319491
      -2.1872170516225831 0.21377872670785703 1.4531371859549767
      1.7965982340777402 0.80957559829344006 1.2077720886238406
      0.3395837286578744 0.95847882651411498 -1.0278165851697925
      2.0959260388994885 -1.8286313485724326 -0.66608787048648943
      -0.40181983321800607 1.2608877673777195 2.6887642226777779
      1.1438601988355042 1.2218311516312437 -1.2232824932110484
      2.3040750932558391 -0.83054039446598582 1.4634368389239842
      -1.1504333179363981 0.86416436766655236 0.98903168723786494
      -0.24474091003945556 -0.24248513473902769 -2.2684294324859771
      -0.4425757839189372 -0.61040453377113468 -1.4612646464468362
      0.37083728946647443 -2.9152408120129958 0.90715268552339079
      -0.53991676209770711 -1.1521036031121097 1.0644002697046098
      -0.9850614922325176 1.266932034349544 2.2286077962436583
      0.95169026778297194 1.2517330114473801 1.9493535168638423
      -0.92875376768553575 -0.27692260625102388 -0.24713776664528184
      -1.4770759424377213 0.30276610438776697 0.55233999304004855
      2.9806533228008036 0.83810988357507554 0.082318483119936836
      -0.19449988296504939 -0.51994560509817767 -1.2483383835548076
      1.1780363673773162 0.25862303712930623 -0.38115334306647353
      -1.3337556929986869 0.1270096053467647 1.4672443314852868
      -0.42250253161283158 0.85887318323187734 -1.0582029955934109
      1.4947102327967945 -1.4896370514065851 0.25140924740191534
      1.6994992865971563 0.60499712375520209 -1.786262550508253
      1.2994374013922818 0.035271050938281777 2.9488407292001941
      -0.30219557270170427 1.6407047448681131 2.2915495669336594
      -0.99635975461195192 -1.4262635385520728 -1.1893489590548521
      0.68375896498495137 -1.375345625961037 1.2295866157462128
      1.3854189478400971 0.21244029428038341 -1.1822075319626346
      0.40793011288701042 -1.0996544382494007 0.67066280276427248
      -0.62546431510122247 0.39356373050938731 0.26075981261106357
      -3.1087655441302999 -0.099949685655756348 1.5851397260208611
      0.18516096711980704 -0.53680749752499501 4.224262069843741
      -0.013583808999220107 -0.17299281630472416 0.23890117913383774
      2.4158167577494112 -0.95294105687892861 0.64102750626235139
      2.4799989138659067 0.084891943560014213 -0.54464242181767164
      -1.38162632648803 -1.4911899741600863 -0.72854417991078224
      2.1801912014809295 0.99586233694610982 -2.9005072873462514
      -0.56060632555564482 -0.3855622980129042 -1.0587415023514366
      0.76027948684938962 3.6796781693113876 -1.1479598234167656
      2.2552231004500407 -0.11863392084434501 0.43406490402599307
      -0.049576835508913668 1.2904572111174204 1.7522987509526451
      -0.63902542512280502 -1.526760523007396 1.5745462689685437
      0.18431492548995917 1.2208533694278365 -0.67473320297436556
      -0.51998054790721737 -1.3164157322859682 -0.075371854381968598
      1.4273350831538785 -1.9425525887719661 0.3971733314034554
      0.20573649811883427 0.49025984434671449 1.3524787827736302
      -0.82730021618571048 0.1653680075016209 -0.81952700962787117
      0.7135344415222058 0.48026120625081348 2.5456934648083256
      0.52251319033949517 -1.5668577386613052 -0.63440891041880021
      -0.014305070711702138 1.9676412155073855 1.1997653042809142
      2.1201743138564346 -1.0392804185704154 1.0125676755260895
      0.19330738837208603 -0.73563849106486434 0.31671145712577037
      0.048060476115586497 -0.36948699057381734 -1.0038934416253633
      -2.860602190595352 -1.725935593757717 -0.2598604031810019
      2.1035760189940769 -3.5147862230933367 0.21385256716583093
      -0.17424505650631444 -0.14443140479506661 -0.53453892321743768
      0.74715317310714946 1.8183621387415962 0.091855986935840919
      -1.5397411682689848 -0.24891145764018055 -1.2848858523284907
      1.0879331883219074 -1.5246090426818735 -0.64215404315594504
      -0.29278894494501523 -1.8166045575087286 -0.019393938835498802
      -0.80616027364632181 -0.0013267165299774117 -0.41355999538245836
      -1.0651257241494123 0.20888397260042579 -1.1065300450597537
      0.70015873887904234 0.90779841227007041 1.6452237270621133
      1.5734021799094424 0.89883635962332298 -1.038427060662535
      -2.4492407651504711 -1.8482959509227546 -0.20565712563148431
      -0.1145189064774513 -0.27312702106074516 0.14531027697911786
      -0.24806698852152465 -0.86139778883759477 -1.4060514345124537
      -0.34919423231262803 1.550534369223753 -1.4690481521328425
      -1.0828294298597412 -3.1546009079536068 -1.1585487994120862
      -1.5879679662322632 1.3591999209429719 1.9646597536979451
      0.57133967201952895 0.12083112353506564 1.3747378736520404
      -0.4422449250971312 -0.54525129486819746 -0.06119503471585197
      1.8176392712676124 1.9887310500199007 -1.3396821293836205
      0.45548547535248246 1.0960719360864823 0.53471062608897124
      -0.72826657597578937 0.33902038765318743 -0.79789469872140772
      3.0807756035040303 -1.4801146336109381 2.1212784944682905
      1.4388058528247922 -0.32911828725555176 0.45101664555519966
      -0.89496259366414299 1.4850877999553338 -0.082843112579059922
      -0.75576033859950231 -0.55599477684500576 0.28407482037358572
      -0.36241325727846185 0.36952803176741067 -1.2465975234642797
      -1.397177417531297 -0.078364522147851778 -0.45689294116355489
      2.0548499571469208 -0.17911012572623825 2.5613956680798662
      0.92787664910705892 -0.60339937814520106 0.60164044727379162
      -0.62702372710519805 0.30385087744666361 1.4400258703973161
      -2.6038007019396852 0.33790096490667582 0.43355995631962146
      1.850498829044704 -0.7643104305741707 -0.48235397552464049
      -0.23667265213135841 0.97375249796713415 2.0995126475086421
      -1.1606545076042296 -0.077624155188201177 -0.074359152157046859
      -1.4665582360145406 -0.98972948108609493 1.206541043515994
      -0.36359464911211231 -2.0870619807618715 1.6311734770389887
      -1.6809787458130074 0.76911289475362521 -0.81017577091018911
      -2.4752834394153931 -1.1368723864997745 0.023154361327076097
      -0.11119263489590504 1.9404657837668648 2.0318041827119075
      -1.4562456673508823 0.1699555544371795 -0.91876294051704877
      0.30534178260668093 -0.95715957799642881 -0.90797625308309737
      -0.64663960830348699 0.36633035065171177 -0.97313686125778165
      1.3489575308399935 -1.0040688948316485 1.8887299491382279
      -4.682854343807902 0.40919016283849663 0.50031822945424642
      -0.78747590664615819 -1.1234506171631706 1.1883365944928403
      -0.8015347907427145 -0.12048187094028324 -1.19346089033098
      -2.814740715734906 -0.77606024398244899 0.33004488055419873
      -0.25216904003055129 -1.4587920395796439 0.30592942515332439
      -1.2255160382960673 0.79936718456845557 0.37753440859199866
      1.6763932206072047 -0.84613066564475703 -2.9624257753950127
      2.213445866100642 -2.1668014439784522 1.7287248070450061
      1.5887025611275221 0.64987300569975637 2.0394349101583784
      0.48001403970652834 -1.8803055975952303 -2.6659432824650868
      -1.5588647602790844 -0.092319010886746433 1.3539144168873565
      0.9436812351875028 -1.7922606645956163 1.3660146953357222
      -1.0372828894422472 -2.4315435095900582 -1.2772046413667733
      1.2069683668404532 -1.5918242603306323 0.13308243770250558
      -1.5520515714261853 -2.6517061231507948 0.13536075007435158
      1.1201699427906491 1.4908294033113298 0.32444456847858122
      0.3701058042243246 -0.29005261760768736 0.50126109378570616
      0.40399456514155396 0.32948825247811586 2.2174467926852111
      1.6232938170947091 0.18799353825006307 -0.19017434540291317
      2.3491139981235074 1.4455985471963364 -0.43360317556250599
      -1.0681059662840522 -1.1751443542296869 2.6642309534668658
      -1.8835273632708684 0.2482849732966701 -0.33180653118920395
      0.6511011313405155 0.46962117974217249 -0.54139926924358306
      1.6631504222167763 -0.5107556445894581 0.25309918326113234
      -0.2932389353464806 1.7211533797453045 -1.1221345471254827
      -0.35321962547082469 0.25025219138694033 -0.32319105318266811
      -1.2095878662479655 0.45109440022933894 0.95795991035308847
      -0.019808181310984489 1.7424743700324283 -0.40672524360980034
      -0.61460500525495643 0.55520586904250269 -1.9314724385851749
      -0.35083778163949014 -1.0007019239762178 -2.6041573449836708
      -0.48107324966165194 0.90458314627684266 1.2946999466573548
      -1.294104256849244 -0.46169771644589802 -0.15348568596034839
      0.091703060880946694 0.36626346744219701 -0.2065910259855378
      0.62999761084843708 0.94319425088425213 -0.99926683418318629
      -1.1706921619484418 1.4773404618944421 0.56943528849993796
      -1.0107637315348008 0.33946442126665499 -0.60135577054970668
      -1.4561743962292188 -0.28230236392292035 -2.4808499627239118
      0.54168597942232732 0.98202347962854042 -0.59559377473664932
      -0.15839167157207884 1.1406244103134366 -0.57285879488423708
      1.2132894533364929 -1.3565501232609305 0.42730057417226514
      -1.7843538866510038 -1.106236581409584 -0.6716958325300989
      -0.84235520190191093 0.42503057251557463 -0.35823500491906707
      -1.3482215006476255 0.56143986496079656 1.0575122353569739
      0.74732181071064996 1.156060765683989 -0.063567788220960375
      -0.4886078159400733 1.804620729329115 -0.69807847876006968
      0.060350767128343114 -0.5972943064461802 -3.0157163245983623
      -1.6704306169779892 -0.30395765027216676 -0.43533261563064257
      -0.059584603357429995 -1.857775888412833 1.1648657907360342
      2.4764413971354746 0.49824856374526183 2.3268885380907802
      0.88476983384992991 -2.4867654952599265 3.6362468929473732
      -1.7507648128909516 0.91341657273161136 0.23768448099813266
      2.2854752861407768 0.39526395569524225 0.11136156869271664
      -3.0265199581847368 -1.3635702487998218 -0.029739114510240593
      -1.1261096904768502 0.68361590405360861 1.1442434436102971
      -0.8860125389587441 1.60502684781115 -1.2492628747212688
      -1.7927669765520011 -1.3584650946715873 0.29324452554539904
      -2.1887331966277048 -0.092529760904936295 -1.8281691090235046
      0.40859037223526168 0.80451944431821631 -0.060731954231580822
      0.58346941022469945 1.0500521669584735 1.9373127730173334
      0.47844896879433535 -0.65769770561725027 0.27297150650426727
      -0.91230102585403994 2.6054575384616494 2.3546169719927579
      -0.59684531995603562 -0.59515443773254906 2.811487330973975
      1.5812394488781247 -0.52851539352723809 -1.5349777670478351
      -2.2504749770647385 -1.6911032943207516 -0.71308018044583821
      -1.5416269494079138 -0.69625892977589188 0.87318264860114825
      1.101814893791524 1.6938597137934077 2.6535867124062715
      2.6098175205555694 -0.49200165847580124 0.55302559112435867
      2.4170822527697982 -0.42196328336885619 1.4605413563801919
      0.97993183112191662 0.41497165069618236 -1.6686713943641696
      -0.3248155633250448 0.3911325676657893 0.49054745715589165
      1.6954238963294723 -1.1583946597457433 -1.8446437863500385
      -0.29054312305772095 -1.2547315122458693 0.13454809415126098
      -2.8803221637745247 -1.4022545520956577 -1.1647878093189719
      1.4830470920351402 0.8371206521969391 -0.22703228838917716
      -0.2625604895640079 0.14758587581349009 -1.1164546791630807
      1.5244972076771077 0.037168703774291482 0.063980021014245075
      0.32150296865667344 0.30105246887785103 0.38742589264250687
      1.3218653356850427 2.092344000860435 -1.1845765003245436
      1.5484337304224005 0.37757217698762652 -0.44143768965403646
      -0.95102598925029058 -0.95137382343679244 -0.38593396577416156
      -0.19640518951954769 -0.68251609725571138 0.59116781556529996
      1.0839639583724963 -0.57454986774252348 -0.49463395690603484
      -0.46726375160822808 -0.12704061313867387 0.3449188160014271
      -1.4542715026092159 0.99299201165582374 -0.95683577050102575
      -0.64136386618176178 -1.7116089634571472 -2.9772730802222656
      -1.0500498738674109 1.3790895202880566 1.2476008087819921
      0.32561505711628397 1.824974518751376 -0.27694521987937415
      2.1272492013618125 2.4684815988092099 0.36470385533924016
      0.24858484523001684 -2.6639433585684724 -0.67740557726375461
      0.19672557461192894 1.2821946949628866 -0.40878305385369951
      -1.9243362344157833 0.5520589045870663 1.539944708604764
      0.99104934474112094 2.8379460105917622 1.1831908063140033
      -2.7910994713831934 2.1131289635493902 0.67863820405543496
      0.48127263991065444 -0.10169441673974017 0.085558072711459959
      0.28141913011582048 -0.33867626889691993 -1.238320139152518
      -1.2725602116092076 1.4254663711889055 -0.53658412489425789
      0.042808037663329676 -0.53088859658862897 0.66946624596168869
      1.4985108668984044 -2.2155812679518734 -0.42767098081914268
      0.46593135941716179 -1.432705140158645 -2.5963255721467089
      1.2135699949225984 0.75233422862793065 -2.0853980885561829
      1.1330258680711958 0.20510024084213391 0.8615670445648268
      2.0264846793327571 1.4235518819839876 1.9647333795438084
      0.64085165376780839 -1.1180181275100072 -0.28805911546256313
      2.931487850848888 2.752904472078479 -0.024271610978907867
      -0.52900240310597579 3.0025199576724786 1.4917398208251909
      -0.3744408646828149 -0.89193554677021736 -1.3374114246849167
      -1.4936503463861621 -0.29993805189009426 -2.7293843818231851
      -1.8572013512282632 -0.070462647125055691 2.5947805229768477
      2.0266116359271336 3.3164265255166239 1.3609055202587532
      -1.6328510845953188 -0.050203097033881282 1.6787751015322427
      0.10834613333883637 1.1960498572511902 0.59992061469348612
      -1.5839915352926996 -0.50001743184222991 1.3882244111374318
      -1.5267234143834423 0.11318971082940781 2.2603070882216594
      0.51704095257562466 0.44581868427883026 -1.3735798764694342
      -0.98774108808978633 0.015153977034979851 -4.2035675005079911
      -1.1596848262089225 -0.34577821423377564 1.3459478171218426
      0.2997037105785772 0.23314541543653047 -0.25004580520990177
      -1.1658199411851333 -3.163737906936237 0.47575733026745237
      -1.8642833334135127 0.5943108075473833 -1.034059851074612
      0.79090846986306751 0.80197899721876098 2.247406345920151
      2.3821081678634024 -1.812385806921549 -0.15999593894041378
      -0.66898940468866619 -1.3174468869895464 -2.5801851341296738
      -1.0530896621178865 -1.092326429449372 -0.62767881801917169
      0.75029809754440413 1.2633444431780934 0.024790252801657989
      -1.5249315772427496 0.024882421080418011 -0.78093207559099453
      0.31441928395187907 0.37559355060834715 -0.99299150295493444
      0.852761093958743 0.12037875682460242 0.28488622361613725
      -2.2925997028789786 -1.3820878176403906 -0.86297725866517827
      2.0366961117624376 1.5326463139927675 0.13773745408433505
      1.2620310227060618 0.45067251398327335 1.6536749144057539
      3.8774532810951108 -2.3190666461820708 0.92664489776395309
      -0.10444193040305257 0.40093713210683973 -0.36686309861248412
      0.37943176829730774 -0.32483725476059844 -2.4643518211172002
      1.6884986896628305 1.3733280254073863 1.7842206018092774
      2.3100302734364417 0.47840734267564466 -2.3717206876017456
      0.62786201837262767 0.098484299200801331 -0.24909366243546124
      -0.90101567508449798 -0.0097057684000077266 1.684391412946967
      -0.41861240907912312 0.24129169120999486 0.58764399238016507
      2.4290010869051719 -1.84013264051166 0.74710644623517486
      1.4284595859033591 -0.074572703909415769 2.0193909253951352
      -1.1277983901186635 -0.63038489337078951 -0.22140509051747986
      -1.3225765248744514 -3.0370419403947979 1.2935872755362279
      1.992992942855685 -2.7159546487880784 0.94713143573453817
      0.89591236939839269 0.54194961514381168 -0.032480790335315562
      -0.60924812569976927 -0.012389103767276276 0.57522247915489078
      -0.7996397525422001 -0.58090134572540275 0.23554457947138929
      1.6331816352143851 -1.0149970088986922 -0.76367883295745653
      2.9505977498895799 -2.0298753494693984 0.97600051985504455
      0.41677819956354112 0.1376461304068988 -3.1436756328252398
      -1.9196148559138129 -1.7042172731797827 -2.5514865379415657
      1.385351774436997 3.0692217141906513 1.2977387430603218
      3.0755587801945596 0.265638641072726 0.40985802549176636
      -0.59548951777072368 1.9304123514798848 -0.47666944246674287
      2.2149353463854595 0.81733184734582942 -2.3008578859610953
      -0.54216884643094909 0.89683821949322462 -1.0021357195892051
      2.4389277737597861 1.3496996188331396 -0.58083973007174194
      -0.037931699619875851 -0.41973098293821015 -0.34903755562753652
      -0.17233827041980981 -2.5078157313452958 -0.55068950592431776
      1.0010274540094963 1.2278051655244087 0.98780212977083637
      -1.0417957278009251 -0.47193415806219419 1.8464950813357033
      -2.7714602451120971 2.5503430043266149 0.7132848898944022
      0.73679548883583401 -2.0096178631724646 -0.39272670047822744
      0.11486589042004106 1.4820223364876488 0.96200567271545057
      -1.9046321300801992 -2.8490418858848678 -0.58961887677842428
      -1.245533569608122 -0.91059838675565186 -0.001173413833654189
      0.15167088159698389 -0.28522440187664805 1.5730949044318769
      2.7977142005330076 0.15742689397413082 -0.81356269739362608
      1.8476359105161029 -1.1750540951617579 1.9949395210449872
      0.90574055113130558 -0.38634350316978083 2.3861272035321925
      -0.92118718572695479 0.38828946428328276 -1.1840402143838007
      0.67060224033899041 0.38043052022313639 2.4131235322833851
      1.9280936249707423 -0.0068957676006479486 2.6973638981064498
      1.3511361329408305 0.28373619877318046 1.5299351068278384
      -0.36858450480269467 -0.082362096947521279 2.225100440728613
      -0.42252442906545257 0.77042785146945525 0.24313539704864115
      2.5921161869611518 -2.9316253100069471 0.17333515495901378
      0.21242608816881914 3.0655327244058124 0.096215152099076579
      -0.59775104428658343 -0.72447943473699583 -0.47472834734060421
      0.80077528032635548 -0.092152192971715854 -0.62721196098892873
      -0.059909423128067553 -0.51133634659432714 -0.64759804398482423
      2.9525442158461557 2.4411421740868313 1.6169533540717425
      -0.38470137753384631 -0.66024746851915672 0.93481579437689799
      0.43582698892168786 1.1515598956303781 -1.22925067410476
      0.24726191628996477 -0.81790181312801091 -1.2099588907036394
      -2.7677767514469669 -0.22595917601100371 1.0889307152411862
      -2.5288488854517031 1.1356419413920908 0.035048136630191851
      0.80638989860219668 1.8143135565505131 -1.1446075365725039
      -0.00095523028523686587 0.52577939962610076 -1.3559024876614152
      -1.9240720794235939 -1.1443246552302724 -1.5957248489117684
      3.0375369193751087 0.28600635003115549 -0.11392367144114937
      0.99826429269809036 -0.7399808948062675 -0.49364047909693964
      -0.90129743246681759 -2.2632397502672856 -1.2100443616147023
      2.2118217659037205 -1.0446269984994918 0.44895488491587843
      -1.0380123311355198 0.006603953976503059 1.949233782210805
      -0.66756772084684257 -0.83395404238326876 -3.3705034636566746
      -2.3438527542362646 0.37872318764424134 -1.1415245411231636
      -1.1211625205818825 0.36310020085651135 -0.28287341494334256
      -0.41481545571658024 -0.32588514524167228 0.14042798527099715
      -0.98588392528580804 -0.38318013734492645 -1.3167253051131571
      -1.1564690654680314 -0.2254165512202283 -1.8474580927011155
      3.15227600122584 1.2260362843643577 -1.7456114144987789
      -1.4806938781526371 -1.0430165671722478 -0.39695876699240462
      -1.5425896335821354 -1.7729180091395647 0.33733857874210382
      -1.4240388310122407 -1.7068856067920164 -0.5373498881533989
      0.12667656470684135 1.3627874843050616 -1.1431944809409991
      1.2640828197787424 0.038612052203416576 0.97095892368350034
      -2.0432722595276278 -1.0497255049033738 -0.91050898344480813
      -0.89249271271064945 1.6578347419785708 -1.0974489721636898
      0.15244876510120287 -1.5925795742770634 -0.32642651673426687
      -2.3668735836394945 -0.32253260023437386 0.94364297033652111
      -1.9895826992953656 1.1018262715213554 0.75361587039532818
      -0.232209484883525 -0.74147687103162552 0.035133297664593999
      1.3428946392550769 0.58240312311157139 -1.3877737554115954
      0.1366733868511919 -0.42032827019686136 0.53258765574254452
      -0.91204878844278925 -2.0486606704570263 -0.9312904398595746
      0.14369506883695299 0.88037648866328133 0.13265080681811048
      0.71656189784547275 1.6157926761545101 0.30889271271316143
      1.3693348816219402 -0.47008465038543157 -1.3120743559224779
      -0.030035852077052515 0.011914704449114391 -1.4471717111356348
      0.99598169030104111 1.016762111869866 -1.4890632035147726
      1.1897201495255001 -0.50322567339077795 2.1865960614024633
      -1.6569963353974821 -1.0538150528186516 2.720289431512509
      0.44691238984208864 -0.45537449205814595 -0.70903145756582875
      0.84134061676263683 -0.15036908729242326 -0.57414226217943631
      -0.59866659728357574 1.1139844232474885 -0.41267733592084072
      0.3873489791435436 -0.41602979342411373 -0.29283613903132244
      -0.69238674854292748 -2.028618032183922 0.55861852400545742
      0.20737251147233968 1.8369601624133243 -3.2498104205131102
      -0.15606202491132895 -1.8276082074543121 1.2395449985798381
      0.27660844193673739 2.964062843264712 0.24884877792454538
      1.7029914607550802 1.9014109788550291 -0.95303562702330769
      -0.22769470607337108 0.28097941147939948 -0.36640206154954186
      -1.829950495896737 0.70644907887360953 -0.23510842758018402
      -0.86277719969706235 -0.14016822592300349 0.34776796400778509
      -1.4470762887995738 -0.31038322449201716 1.346943833630116
      -0.25849276063032373 0.38941175284160462 0.0079839506366842609
      -0.027665756554046447 0.41997799901635147 -0.92334624266090204
      -0.50235634263830686 -2.3728693344302467 -1.8787300224025463
      -0.64751775090832309 0.93332031209924415 0.6177208210691143
      -0.5245830843446122 -1.0452034062839202 -1.9286342540872683
      0.96729079833332987 2.6064742772789038 -0.76350355681290594
      2.4998123226863762 -1.5097441364440942 -1.2659186143404217
      -1.1704127173714232 -1.8014414025288406 1.1294287793759878
      -0.36410633077448873 0.34828994563596538 -1.1023368402177409
      -0.92736658147277351 -1.469276813777106 1.7622214798743905
      0.38456349865578932 -1.3787435844476994 0.59085180813976279
      1.3704786990265565 0.7179373691260017 -0.68685106207271496
      1.7956021919812775 -1.5942222421394046 0.51905343458554509
      1.9928370544252021 0.81550600726137212 -1.2525718102118684
      0.37326997638322634 -1.570141128776094 1.3378211197356633
      1.3554325645522416 0.85308295586202376 1.3996121530459751
      -1.9737335659086661 2.5191071270220737 -2.1516910017796036
      -0.0025154687551060513 1.7410993428697827 -1.418694691943188
      1.7520915743162837 1.8950214385802227 2.9522958385403659
      1.5608328891883025 -0.39374750457886759 0.15226270135287134
      1.9226267418402179 -2.0074565322201714 0.31870555910299048
      -0.54536652682615128 1.8217437132009349 -1.9806404982757191
      -0.49713587282885591 1.8146648024475298 -1.34476655510923
      -1.0750598429422455 -1.991447759564527 0.47610318617229153
      0.2550691939629805 -0.75880425635139548 -1.7596690036995066
      -0.97196926438083819 -1.44206385458862 0.174293921685332
      -2.1468067765920531 -2.2903977654812779 1.3439329059136202
      1.422819639028525 0.47263906222645474 -0.53351137955965666
      -2.0781895153534489 2.4654664336673835 -0.39684752216964675
      -0.4444424234720018 -0.38460908929555754 -0.32124587261689314
      -0.067642628793524298 0.43876060029853292 0.79181029036413919
      -0.76966055131100375 -0.093985577030436362 0.088617227809210705
      0.19197767969704149 -0.081762298103092657 -2.0783756636276123
      0.89973010455343239 -1.0812416794474742 0.64574779505105051
      -1.34016055502996 -0.15250787573419708 -0.067984553285460325
      -1.6805926629183408 -0.36601761994721721 0.40657969053536358
      -0.71478703114386832 -0.33305106789738714 2.4921569781962845
      2.7613946898376618 0.10917057085941441 -1.603503637689131
      0.10028727404885283 0.73623972382706904 -0.99977780046899534
      0.16060210421208007 -1.1856752760268847 -1.0396677781920756
      -1.4861260140549299 1.5017458822906058 0.20337795947476439
      2.5165988330668947 0.22778262589280954 -1.2691767589026866
      -4.022748440062986 -2.5681168765006603 2.1510262608827024
      0.80089455829474132 0.58377401893720371 -0.21775160799637303
      -3.6695900008671192 0.51434978829806643 -1.0242946345789383
      1.1409244725830521 -1.7990621333168744 -1.4864355568380676
      -1.2628454000846356 -0.11687796390295414 0.39871655649011295
      -0.30917851253652906 -1.1261910380739832 -0.36263706932258521
      0.72688424365882298 -1.6251134075602023 1.9084791724942332
      -0.81221913890429187 1.2589271162966851 1.5928884881611378
      -0.47169011023978374 2.5615428770018878 -3.083077376741536
      0.59433005754104828 0.7639186135742716 -1.3004645805878956
      0.069754287738000631 0.61738801255270825 -0.31747492558025997
      -1.2998601423909235 2.1798537054088474 4.3917939876563263
      -0.76180288798499407 -0.75386296833112532 4.2841054179915021
      0.22872287801205821 0.52047293185806787 0.75928516439941274
      0.23939720208892423 -0.24364971412773584 2.4184229580770245
      1.9141836513010351 0.21562557157699078 -2.5275229185999066
      2.8993776534524396 -1.1740534739843738 -0.12127613365180487
      1.5131768972239497 0.48791966759975858 2.4819966251864387
      1.3514567043104315 2.4931951351109016 -0.89795111228794011
      1.7217650277029732 2.021988995132789 3.2658247778056753
      -1.6899532721867179 -0.37375025831033448 -0.66259869357954682
      -0.40910009275810844 2.3015470692626674 -1.6242770766141592
      0.3650234673172017 -1.9058109216887447 0.33182213756496337
      1.8627924034817065 -1.0952111393542243 -2.1917499759384671
      -1.5211463984473192 -0.606677316728234 0.57281037697543802
      -1.2506243212751693 -4.8916353131598251 -0.5139728741730728
      -0.70397950652573127 -0.21475526178528689 -0.79121401369918898
      1.135690059698732 1.6637962052026685 -1.4828510822784289
      -0.47162354490870351 1.0709707563710194 -1.8074805000182692
      2.6593051606747919 1.2976952123780605 0.3354149563241498
      -0.20007879597760969 -0.4497077931085971 -0.6104605839285443
      1.6048080401231388 0.19089815168150542 -0.85821672761125167
      1.2007962517616875 0.19741915069357291 -1.8516996306744207
      -0.48447998792114833 -0.35675196475246729 0.65082813209327184
      -1.0085162468610098 -1.0607165397413396 0.1925124112732963
      1.9539503095092814 -0.71411790939229336 -1.9995752035826593
      4.2357894798604949 0.4024138587535584 1.3962020642105484
      -0.79490502526101769 1.212057567577157 2.7714011326779331
      -0.1298424565590417 -0.12870835719540663 0.36803840741070792
      0.83702197706201065 -1.1461883222884532 0.22170231262583656
      -0.26106742770375008 1.0330010703916155 -0.84765231107358496
      1.6213537526703987 2.0857257533540796 0.42557828074796417
      -0.92111324782580994 0.31159001823657723 -2.1581685940474027
      -1.6224052746988433 1.3964509032691339 1.1014050867348244
      -0.18028259829327312 -0.62555237481144532 -1.2875141666074408
      -1.9538572760834383 -1.0572992081665162 2.1849133278358757
      1.0812563101338948 -1.0572578410132849 -0.23455903728340985
      -1.2106500244078371 0.10532286137215226 0.0031911529231689012
      0.59472035587758665 0.6787445164685566 -1.2852653567763843
      -0.42183722774566246 0.7235487121187244 -2.046724579008159
      0.34603008783060246 3.0747782990274279 0.9227715170702997
      2.0408226199451969 -0.67054083787190055 -0.5608347242096583
      -0.51590216802194666 -0.26068389402309761 2.1958638564177657
      -1.0992729248622728 -1.2607190941351245 -0.66203337409712093
      0.72700321421420611 1.1556190829309581 -2.5978105460346299
      -0.82025363503882642 2.5598518573653584 0.077245570453628856
      2.5406322786713216 0.69372628257476499 -0.51924290796575878
      0.72280971608209144 0.75981342012127417 3.0482759059738003
      -0.91445142394663625 -1.470061591477537 -0.10193891102530614
      -2.2067301469058163 -0.048111514634064899 1.953187136954375
      0.96341078963510651 -0.64705774681979189 0.66657256003630472
      0.30848029346805278 -1.9727861637065229 3.5506588859779211
      0.48300638884398744 1.5185911203053926 -2.2377193252409193
      -2.1910184733800642 -3.8099905015973805 0.18804133916014792
      3.2422941116540351 -2.6814247255402508 0.3223300316432362
      -0.74016534477503482 -0.87216953355903615 -0.58217267859558886
      -0.037839520653775584 -0.25585311920043474 -2.8417521864093458
      -0.14948933052576424 -0.93666019060583583 -0.87552312405765853
      -3.7004333150996698 0.1594871725396847 -1.155644189536893
      -0.28519586430308075 0.16752789662776879 1.2215532557184625
      0.77785359136505428 0.12358164946802305 -1.264763503145474
      -0.44083893894367487 1.9401682473918604 -0.20535019613880917
      0.61763256423825075 -0.091246494029970787 3.2103330843836098
      0.38181653991742881 0.12353161190472089 -1.2625667159007259
      -2.0084759674065995 -1.1692735968733636 0.55051967631015863
      0.87109263625096078 -0.059712993798890848 -1.0047055601204058
      1.1988150919885205 -1.0415750608394068 -0.1181353706735831
      -1.1414856039456851 1.8537395747314154 1.3688500940573363
      0.44624942530710848 -1.8127514385433172 4.2163544000361082
      -0.18164854764575522 0.78012838619600422 0.11828261489163104
      0.66194697445382822 0.97040849359514858 -0.17789850060518805
      1.2518167476463293 0.35472175245923243 1.0454817829691432
      -0.74607644763604664 -2.409849444009057 2.313757076401683
      0.71728003924472983 -0.26959402554301398 1.9935583950274149
      -0.41962878361302686 -1.5940337733659375 -1.1232637677311321
      2.1702391396442753 -1.882336765204772 0.8795178826710941
      0.16420998125687267 0.10399029841024884 -0.516016647344121
      0.24261946816404703 2.3382011545153438 -1.8875844116594196
      0.036193227855793868 0.31177891365756089 1.4155479390287173
      -0.25741592118209838 1.1287376098143929 -2.102812140358012
      -0.67558661048333435 2.0141169597554893 0.52180128603218778
      -0.20414352259053309 -1.0305570916260685 0.05345240367583539
      -1.0412766458573859 -1.2663480541924959 1.4795367378285673
      -0.83233364751361638 0.99292993322291989 1.3687651196723696
      -1.833631963042839 -0.1202126558807521 1.7057466222170941
      0.86687929262562025 -0.82014147586652542 -1.4245231094859478
      -1.176055907698635 1.584599025992391 0.56372165502969362
      1.1746422978325293 -0.64707445034603095 0.31086707010871423
      -0.12558194139523984 -0.061523151061690574 1.0608982941914984
      -0.05440049304933562 -0.0778348764487172 -1.0391078688660409
      -2.7627408239377358 -1.0970268286453824 -0.13202216356226679
      -0.9770488919573771 -0.99700240560191711 -0.58884425438305998
      -0.47045023862559876 2.7205566556050487 1.7519076321751377
      -2.4010552970842194 1.7324881883885666 -0.80137578224223227
      -1.7973255399604451 3.7706307419616039 -1.9941341125989709
      -1.8543753121792954 -1.5489159945407833 0.95615388525961253
      -0.92110587802457433 -0.016292123184317255 1.813576738036984
      -2.7660645033133258 0.34058587526129014 -0.69114203313410505
      -0.15306275250815035 0.20670711943146092 3.0166659121625514
      -0.14412587741148633 -1.0602994860132009 -1.2830950314327783
      -2.1029038951546517 -1.2169155938857736 -1.834744926524088
      -1.3779848943574862 -0.34079490307338406 -0.60619816586077913
      0.30270534874021199 2.1633380924899663 1.8150354566614744
      0.35831648943398842 -3.1576460478773143 -1.4484442553114163
      2.1482481190197547 -0.20215361464173962 -0.82805838041848612
      0.96849965395849213 2.8725322537824023 0.86212339809423133
      0.62782960191471571 -2.3991416425314025 -0.83711406110526465
      -0.98179094824372648 0.20870263805163128 -0.1795479258118525
      0.70113525462335646 -1.272608107063383 3.1730548154909752
      -1.050299032514745 -0.1311983011823887 -1.3111715883597825
      2.1977672003596149 0.4831876967205766 -1.3287265464942546
      0.42175039844112339 -1.6388066011691824 0.086699318461955208
      -0.32609263609200223 1.7953562116774358 0.97680189396529238
      1.5619811907947005 -1.0125561439178801 0.91382090774399161
      -0.69374596843875425 1.0319481869742462 -0.038068642095315415
      -0.96280902633025145 1.0460696991343599 0.10439974588436368
      0.55731017276482253 0.84937160906043985 -1.1885473531997437
      -3.307669525348286 -0.58263982854619589 3.0783094196151746
      -0.67112546785510396 1.0427773741417252 -0.14046225418882263
      -1.3574820782672352 -0.24700616697596495 -0.059081327322132469
      3.0199474922197744 -1.5850499832424376 0.077963335380710985
      0.56278227164015115 -0.49917822025363118 -0.25114303775661878
      1.6375832991549413 -1.4608916561689349 0.42450721662743063
      1.1655294150552269 0.70536393233007955 -1.049221985689659
      -1.4681442600717398 0.62466420494862851 -0.666408731571136
      -0.96511363846339004 0.29350735262281069 -0.97851165282571917
      0.57347532048977501 2.1668257650692007 -0.69374741447713861
      -1.2402996906260866 0.6167255120367795 0.89735529179635976
      -0.31849934579018824 0.40201817350921831 -0.027516222803751472
      2.002986913246469 0.33608594654930557 -1.9426618325972245
      -0.99981442563229961 0.48655641577370129 -0.63594339192786487
      -1.9796015082030261 0.17636917731056412 0.36742636878387552
      0.32767580803508456 -0.67541507030163084 -0.09943462648437168
      -0.46791905911199133 -0.52993407975992013 -0.81778139850956832
      -1.977608359600266 0.14379944868219569 0.81059389676773408
      0.80979857650635434 0.7980547895163026 -1.0220625592134331
      1.6945800458094071 0.92113130894979234 -0.50582371685700045
      1.8238055608767383 -1.3325223979912639 -1.1744998356900993
      -1.7151104149632677 0.31606811781729349 1.298582945597581
      -0.97622123656809845 1.7205134790933865 0.33552091020552638
      0.18408757442547538 -0.30230919980424414 0.65933314824172951
      -1.9287937275127158 0.62839355734078739 -0.26222672714788103
      0.059326651271562579 0.18560847881182213 -0.84111927562264788
      0.076906586339361135 -0.40802138721151432 -2.6278808991594618
      -1.6613121288326949 1.3383546249094231 0.91305446852396288
      1.2539584502336549 0.82314234557489252 0.55509305735800774
      -0.40427855476373037 -1.8609106679136782 1.9138335256270727
      -2.0178570943822236 -1.6399017422531079 0.49819044192641809
      0.059097837362389175 -0.035034846286137372 -0.68099663252758302
      -1.577347961168327 -0.54614410904790334 1.1639891449612796
      -0.34903366731199692 -0.21949965343399569 0.12381591057516846
      -2.0026989002948294 1.4155176481630378 -0.73732892756125301
      -0.21102201940955623 -0.54844228367056103 1.1815868004526657
      0.4935383806307444 0.44770877354205685 -0.391589390021991
      -2.2205850931960809 -0.098830489483778011 -0.51018948772586692
      0.39751961750883369 0.21725381323441609 1.4093374023319865
      -0.70761558337215669 0.035397685301218257 -0.76007348308840639
      -0.65001282376611824 -0.38325782481527521 -1.895958567056528
      2.4764638450970593 1.1482343984845924 -0.25321802735686388
      2.3138450265899664 -1.4782089404352503 -2.0076851546611758
      0.33874545393471223 1.8504202176435183 -0.68011117557145118
      2.0201439900731057 -1.1473452586693995 -0.60172130743368357
      -1.2782703369665356 0.72726354066490662 2.7740130335569493
      -0.34718751528843683 0.79626479382219639 0.022431540859573055
      -0.18273935049773138 0.69119729920182338 2.3840070990079667
      -0.78335366663722239 0.2696928944551007 0.17721755024451452
      -1.4962447075005376 -0.82796619323029452 -1.4278382345222214
      1.4012687632481717 -1.5200933822661002 -0.1804144277887961
      -0.85329023752641608 -0.91204171055856309 2.2179575614301932
      1.2260518600502888 -0.7224663399812854 -1.3711534829538339
      -0.21857494557967985 -0.36723127127330818 -0.99062268914750251
      -0.06114596783198261 -2.3243612180565636 0.40352349142220462
      -0.33345649395247073 0.72170483887498715 -2.1123704548617743
      -0.39448458484521126 0.89139574144651301 0.3659310473795459
      -2.6536099586122095 0.6696182453358257 1.1058992780965169
      1.5072548585018324 -1.4056333493679078 -0.61654335792369441
      -1.0323789154868261 0.30239119015506732 -1.8242501949908176
      -1.2253552951740505 -1.3164631069578443 -1.0585060339187657
      0.83980136973367048 -2.1459260755696694 0.46722696260885782
      -0.37103945935411919 -0.80091434785863547 0.66092595104781882
      -0.27628896016635196 -1.24236778989702 -1.1607288123811235
      -0.85274698316603192 -1.8041195217248323 -0.59399534748798388
      0.75011176174861938 0.39560381923483651 1.2085131806395086
      -0.47006054992771706 -0.47331722730441289 -1.548109515127233
      0.020109016879414091 -0.19127671835914753 -0.29186507988968702
      1.2096942822442971 -1.461578937172078 1.688531964911635
      -0.25245805271191013 -1.0396552619724442 -0.86194462199001498
      -0.0040982544834206975 1.5595798703293358 0.61683351688874943
      0.79290258857451512 2.8787426476835525 -1.104366386089797
      -0.68465727703904355 2.1499689468348246 -1.4852660762954941
      0.27111379478708747 0.82777888799475818 0.34574254112799563
      1.2354835665640216 0.26652777261001431 -3.0000410392440373
      -1.3741406503122617 0.59679925425895874 0.77380919833476913
      -1.6696474612946899 -0.25067569127682987 -0.49307657476185462
      2.0708851678034175 0.81318839355364214 1.4349196915994538
      -0.75529603128085288 -0.037034821482996902 -1.2962119169968109
      -0.82690345397387965 1.4169487284638627 -3.3791509957699928
      0.39590810879218291 -1.7042718964794867 0.68517703118921269
      0.62825156684814221 0.35421878267843449 -0.81066590145475359
      0.6564431463566478 -0.62477545338145823 -2.6022679479390569
      -2.0573500447827837 0.081258773076099425 2.3011983812128203
      0.74668627236218332 0.40298975485933042 2.4146122977627007
      0.38794379798151735 -0.82318921580824167 0.92736136778690759
      1.4988302454807487 -2.3320883516294186 0.41875153981532248
      -0.98695735924506789 -0.46252717881737065 -0.62602159741965091
      -0.43345202573676311 -0.3372971851502507 -1.1861703060225328
      0.2034683502995466 -0.64085533699270125 1.3403275839919175
      1.4007157793026488 1.6239434922144524 -0.64923093071604787
      1.1721419416570047 -0.49418678866351751 0.29826434120548506
      -0.62167975428757538 -0.21684561967746777 0.76631891927947149
      -1.304570721521197 1.3399755121725085 -0.76759614766276274
      -0.32738595351538924 1.0423266081485076 0.044280036721858873
      1.2438148257217081 -1.9081166419746098 -2.3315285767040348
      -1.9495527225736877 -1.5388835370752523 -1.8532854324760957
      -1.2868979212683704 0.82918559115868529 -0.07763936985119238
      -0.4461135640105155 -0.9246218471207025 0.84721634065507856
      1.4619986532481424 0.72126339049562915 -2.5853231045914837
      0.4850570291928461 0.42070250243577162 1.7030188589486834
      -2.3084177524978196 -0.7514691555922125 -0.63940119399898232
      1.4286064152526066 -1.4237055060692818 -2.7578694017217518
      -1.0434313315527277 -2.0768167613304582 -1.8575003890546977
      0.8050178509718442 -0.56467942394607629 -0.63261297691213325
      -1.4046714887894807 -0.56076566604779599 -0.48932061694947337
      0.084834829246962562 -0.98114062804084556 -1.2576754291330574
      -2.4242922437308776 0.20965901448209681 -1.3698738488599067
      0.5636889404866875 1.234542811021119 -1.0767122382910601
      -3.194060777629713 -1.6409359324327679 0.6292053322322092
      -0.90145244676618252 -0.61790121930378228 0.69087564833498594
      -0.057182857372154984 0.80541129124077415 0.091521091740851254
      0.67221334289394286 -0.75883672104881073 -0.087599631376710535
      1.3706318670801434 0.12483738379020549 1.5378755860338982
      2.3476999322887 -1.256998377253596 -1.5142553901357034
      1.1954093471667646 -1.3825736623159017 0.24828845791870197
      0.48222711036569582 2.3719496422770328 1.8209347198410983
      0.93822792599604754 -1.7350613924901948 -2.029164106106061
      0.54715920295543741 -0.1302969024957579 -0.92161582219188809
      0.50832959648711495 0.29574052725336697 1.9882892411559085
      1.8304445856662968 0.66478169397476294 -1.3056137301592119
      0.58032950724193844 -1.3369670724359684 -0.69234332112762709
      2.2909323300678506 -3.9512869364061323 0.1443520911272746
      -2.1920538743684377 0.99671297173979956 0.71480653237155611
      1.7012999908512338 -1.6332536998325633 2.2418928287779365
      1.1594981011470693 -1.6522978716896768 -0.484974561280341
      -1.5545665352339897 3.3700140483463183 0.057762797309606338
      -0.27171404291440693 0.47132773360219504 0.48685147997602457
      0.067161417501369197 -1.0946717047031922 -0.49155841759306079
      -0.5734834072912619 0.39820675528063609 0.11554610432360583
      -0.56917834364195719 -1.0290503130272128 0.402734873756661
      0.53574777131228024 -0.59450011483330645 -0.94954822921289916
      -2.0142257208318584 -1.15005787108277 0.82147370984268309
      -0.25350094594305445 -1.1549311563161662 1.2232067522223125
      0.19530835071786515 0.87613346503207368 0.46818449245550642
      -0.42631607590051751 0.045281648914737897 -0.56421836202656139
      -0.2277951003665912 -0.88441745095794222 0.74761157774804055
      -0.36419913674896309 2.8651441647877673 2.2461215677291428
      -1.8840490983982467 -2.1368651086436956 -1.9543183855330735
      -0.17989309760919101 -1.938243607418799 -1.8159013983931798
      0.47740541415812388 -1.2927346781180891 -1.2271040886503042
      -0.36317789921588162 0.71295106081263204 0.49574126884741254
      0.25282366714292215 -0.46048905503652487 -0.29977569842612017
      0.63374471665924326 -0.96957847539685793 -0.67433352312970507
      -0.79334987783966415 -1.5733182491766451 2.4993109626355636
      -2.1263999205865676 -1.2681332948513564 -0.72466545508998093
      -1.8610409210926167 -2.4736000744299669 -0.7385091982787394
      0.047797472889751509 -1.932759103433028 0.6750552683384573
      0.16238548904263256 -0.091058734380201498 -0.69736008490101409
      -1.0175604127927875 1.4965563170279805 -1.4279533334667438
      0.082120848178647135 -1.418690359025337 -0.93608040526055092
      0.88102377858426706 -1.8406207220756288 -2.95233139136552
      -1.7682338565745461 0.31034547652138406 1.6261087886606991
      -0.00093119958433377273 1.6809782608447497 1.3218418773938172
      2.2998682015132705 1.3233284360853237 -0.92958926455282653
      -1.157071858334324 0.45476181511107655 -0.098868505386041902
      -0.70601002442648864 1.4580435440350259 1.3417444277182833
      -1.4255628210269471 0.3081951651927135 1.2115800513743862
      0.659682453273994 -0.54921503751101253 -0.66196751224184291
      3.0069193918800914 0.16594457817353689 0.17837844604247682
      -1.7441419646646796 0.61847348268243207 0.65853609449079364
      -1.2044719284910952 -0.76602628701587683 0.98391544955670662
      -0.87785537151182758 2.1753069160326657 0.39713533233017884
      1.7041075713390399 -0.92998497438283323 -1.8155331455126626
      0.25896385602650879 0.34040430072769462 1.9591583574177824
      -4.1572085126466236 0.41733303931657245 -2.2164995533908414
      0.53111444888670989 0.036239900793551029 2.3198714127428448
      -1.0495305697517292 2.8964588234017667 1.8463998529566881
      -1.1138318488660268 -0.44302287461760592 -0.21012678792126435
      0.61212786323677093 0.14263145941692959 0.43255453844895131
      -2.2686540372374191 -0.38839134367389816 -0.88921134597678164
      2.0559786415270302 -1.4421442892370964 0.47255506814998532
      -0.62557713044574159 -0.61458311500946561 0.28039844499299393
      -0.17598173776941786 -0.4625479094373654 -1.5807783210104385
      0.26079826725640542 -0.048996740859947124 -0.69288120461010694
      -0.78251669707958071 -1.5146158936271821 -1.0186878398904979
      0.84971438053703041 -0.28969589674008234 0.031689329027944579
      0.2374075863574017 -1.3555130054234994 1.1254307017112504
      -0.97752799597515783 0.026457996782432061 -0.29851900000249343
      1.1980239687643364 0.57732127650325382 -0.66840304551221241
      1.8228068490939651 2.2327338318090235 0.2812157876123611
      -0.048665411450586421 0.37440724813628823 1.0373251208623027
      -0.58090151466274409 -1.6587801175420456 0.22097458256885266
      -0.91793098515321048 -1.5383435533502112 1.4446596408908321
      0.35546529406307459 -0.29107349224081236 -0.41878348034547652
      2.7820852200249608 -0.081878118426108246 1.1048953958788019
      -0.87577165580528027 -1.4140937328702139 0.27278741926269268
      -0.06881041239324906 1.2351575236212557 0.24422036713620648
      0.79153120990644865 -0.29307232672270866 0.36059671731544035
      -1.226172101502351 0.64483146105296885 0.26736622249888747
      1.5322638685872436 2.5941176381341382 0.50661044235244457
      1.275714491534456 1.5245763701807711 0.5208217689892185
      2.7854342110964048 1.0510389516605594 -1.0617296258113054
      -0.51159357444648956 -0.16346265668965604 -0.42917744999915719
      0.64761378445700157 -0.77697752005057596 0.34593501593988141
      -1.2433681215825161 -0.40172897231375532 1.3838592247389312
      1.8638248499237882 1.5355517110765389 0.69899422929450306
      0.61297634151282665 -0.28446299975342992 -0.96636018039939109
      -0.20710732800489581 -0.73392409250910751 -0.23447955434720852
      -0.97482682040154511 -2.3421332562209605 0.50291042998498359
      0.89047060662912092 -1.8336179462011397 2.1250341507581778
      -0.70641867725091612 -1.511990177712395 -0.080960067528118004
      -1.1283559045383098 -0.20326198969824549 -1.6226484637332586
      3.1740254124143692 0.29574271624664805 -0.23699187671837557
      -1.4897523778656709 0.88900296994806094 0.1118140295611508
      -0.71276597554077159 -0.71448390907987747 1.3213828148907159
      0.88827405542082327 -1.1851773679832807 0.3940952639001889
      0.54367963811771813 1.9029411253928308 1.865348995683878
      0.83893413544239026 0.59255851218874023 -0.75843643058317611
      0.15246348006183727 0.04930456478220701 0.37527391458018178
      -0.16916435009720959 1.248848436347042 3.0665446214291769
      -1.462098973937191 0.83057952759959697 -1.4393117324355944
      -0.05434673870297628 -0.30426402335923963 -1.7539475039147574
      -0.39322355577795681 0.5131552434759119 0.5691626453574864
      0.35930929740042672 3.2519731330122035 0.39052690044110638
      -0.44118096735027557 0.26544892022980587 -0.40622430431793033
      -0.69446237326887283 -2.5317341597229559 1.3495641398188425
      1.2116855017774293 -0.44181657470503644 -0.71397085150293471
      -0.31250930997701043 0.56701239504586831 1.2500802725380193
      -1.0562692128005364 0.24097493949952709 -0.61179674937529838
      -1.5634793100532056 2.8081084539862995 -1.8611153596705987
      0.64827446955197976 1.3853106505385615 0.19193093123113109
      -0.88739149088746705 0.062441955692307045 -2.7232542020209247
      0.17576350970304136 1.4836020560769423 -0.068592922885336707
      0.92375437381689296 -0.35633579428443973 1.6988291106447022
      1.362675881947325 0.41149380266900643 -1.1062340324374531
      1.9676718205841783 0.64985086557624072 -0.048341332789470524
      -1.0675193856358041 0.69324297615010433 -0.78009098645700747
      -0.12256068153739884 0.44020383602594632 1.2544664773318719
      1.5102504911912897 0.11002955863801718 2.0010614757061678
      0.68405515524050498 0.78082884326466673 2.1553789647582584
      -0.67467414689584271 -1.956756612191112 -0.37812107489947633
      1.8860198362266387 -0.79206182980395479 0.34057354865360212
      -0.37659706035813006 -0.21478546494116188 0.66803975327657805
      0.75496104911365325 1.4965556258310437 0.038810687625968454
      2.4994461985070973 1.5944701905252763 0.72100773441664578
      3.044545375238783 -1.5977366656027323 1.5497564409679887
      2.050826011376174 0.58466748706314309 -1.0480303647095908
      -0.81851017324116038 0.40172584473217066 0.41013048532518287
      0.041209030473141783 0.7642273728563852 0.84099461967923339
      1.5034408043983405 1.6521079261405975 -0.4705794178279103
      -0.20229176974101382 -0.73283724485056123 -1.6707742533629966
      -0.92747355036573786 1.738797936164671 1.7281567777532743
      -0.75999958745527219 0.68051198469181329 -1.1385457649406832
      -0.38069783947659513 -2.4362271890987972 -1.2363068286945202
      -0.099867248083750748 1.3365100642887926 1.3023992979595034
      -0.11192718000580713 0.64761747333658015 0.092168183118592886
      -0.37217601576222825 1.5114946037009076 -1.3408231395392864
      1.658071209860347 -0.16415320381034945 2.6486620035976696
      0.91028156881710964 -0.23158751301852462 -1.0725192040914138
      -1.1663986089371934 1.2816695827931577 -0.11174031850120177
      0.68740291940590881 -1.7496092545292994 -1.2710899669726636
      -0.30132460000711608 0.36237615196166689 -3.3904631762774642
      0.80758340159910547 3.3191574089839899 -2.1324296951085753
      0.52686425507086665 -1.3868768680202668 -0.18391775719094919
      -1.497472925099059 -1.2328754362563876 0.52069156640346625
      1.6446062620037825 -0.049881890013854319 1.3285795575550536
      1.9309811440824618 -0.42689768084121688 0.6668968151010124
      0.53047880858351804 -0.15147990415115803 -1.9593372566990908
      -2.3996318799746166 1.3300906875322087 0.39604477363014051
      2.9042308278618321 -0.92201270733511931 1.0726149575707808
      -0.34377437588994436 1.4908592481545109 -0.68915625696167127
      -0.54743182632197684 -0.45304089344155329 -0.46727759740205993
      -0.1676744312916276 -2.2179567706238172 1.787686783700277
      1.329686316457336 1.3546624236785971 2.1043974393096572
      1.1896219350098314 -2.0217782995752018 -0.59304107407719209
      1.5781321752356661 0.30757029227444938 -0.13186300794169961
      -0.55977022038445767 1.2151738962497487 0.46566876398130358
      0.68776188666541849 -1.0575364164747387 1.8616104713378419
      -0.31376462217599749 -0.85822803145835058 0.23086836630629878
      1.1624640233221644 -1.2276575188095349 -0.85932317049981854
      -0.07464363544701931 2.1644367291403217 2.3931556792393649
      0.63032676204000826 1.0019536272008345 -0.28800403051212264
      1.1426033742906025 -0.25099647558918986 -0.37169036705649361
      -1.7665372730526012 0.98454448100868996 1.2385348785660057
      -1.5948221066016857 0.37286720881751489 -1.4550087359400012
      -0.85787988128383053 -0.24788799904490602 0.23416823308718351
      0.64742000843362868 0.18277334780730259 0.66565749422195342
      3.4129723663564167 1.5179506816252881 -0.18855854100338382
      -0.34316988593516051 2.1205358822120215 2.6603641549410977
      0.36200410076973971 -0.2625748408985345 -1.6792348508722788
      -0.74550418913289462 -1.7749929798162025 1.5062068869726983
      -0.62246602534257578 -0.37038998408255208 0.66341279450354129
      1.1042186588142096 1.3058528672994201 -0.30544824017065619
      -0.2572616264341171 -2.5933801146709112 -1.0966873609588581
      0.19861502059055242 1.3339952835639393 -0.97845171081260451
      0.57275311644421489 -1.1890675063193052 0.37133034887191468
      -1.9504800803756277 -0.90109963744424593 -0.93603160155381004
      0.20334701832761953 0.069285193563473249 -0.078023009378063057
      1.6404237547494533 0.35530892262977481 -2.0158923508518329
      -0.90654993982156362 0.36487927674488468 1.204103460495171
      -1.3773187162262486 1.4987546495781272 1.4534309076810106
      -0.33456501090999741 -0.094176703533636968 -2.175325585113657
      2.2459944370043097 -1.1110720646042467 -0.2882491004654763
      -0.99789953947180388 -1.0022491437422396 -0.76269348260705383
      0.17962543246943241 -2.2847756045138548 1.506174586777282
      0.65952713636520433 -1.7883691819297494 -0.84228140143755081
      -1.3899200660142275 1.4126157421153731 -0.25492476682832521
